tree
version=v4
num_class=1
num_tree_per_iteration=1
label_index=0
max_feature_idx=125
objective=binary sigmoid:1
feature_names=Column_0 Column_1 Column_2 Column_3 Column_4 Column_5 Column_6 Column_7 Column_8 Column_9 Column_10 Column_11 Column_12 Column_13 Column_14 Column_15 Column_16 Column_17 Column_18 Column_19 Column_20 Column_21 Column_22 Column_23 Column_24 Column_25 Column_26 Column_27 Column_28 Column_29 Column_30 Column_31 Column_32 Column_33 Column_34 Column_35 Column_36 Column_37 Column_38 Column_39 Column_40 Column_41 Column_42 Column_43 Column_44 Column_45 Column_46 Column_47 Column_48 Column_49 Column_50 Column_51 Column_52 Column_53 Column_54 Column_55 Column_56 Column_57 Column_58 Column_59 Column_60 Column_61 Column_62 Column_63 Column_64 Column_65 Column_66 Column_67 Column_68 Column_69 Column_70 Column_71 Column_72 Column_73 Column_74 Column_75 Column_76 Column_77 Column_78 Column_79 Column_80 Column_81 Column_82 Column_83 Column_84 Column_85 Column_86 Column_87 Column_88 Column_89 Column_90 Column_91 Column_92 Column_93 Column_94 Column_95 Column_96 Column_97 Column_98 Column_99 Column_100 Column_101 Column_102 Column_103 Column_104 Column_105 Column_106 Column_107 Column_108 Column_109 Column_110 Column_111 Column_112 Column_113 Column_114 Column_115 Column_116 Column_117 Column_118 Column_119 Column_120 Column_121 Column_122 Column_123 Column_124 Column_125
feature_infos=[0:1] [27.917046730372661:51.708176313935965] [-19.413488416690736:14.433050250304412] [51.708336276059953:54.081962523357198] [36.306084493536176:49.485002088062394] [26.277847516953376:46.119991630668444] [144:432] [5.5883446453915084:26.581297721380007] [37.441399685227815:49.503471222970539] [-0.32346765821367041:0.32868112133741434] [-0.39854573986806935:0.39872583226730252] [1.3521210995812698:9.6973232276538113] [28.259097611160875:69.679904079567834] [-18.182795555109315:17.437533554764521] [52.092203454874728:70.88264972824598] [36.335914280633219:66.28631990537076] [27.399188018118661:61.346761827934849] [144:432] [7.0827126811533816:29.89133866499872] [37.473954481749722:66.310202196641669] [-0.31555314880435748:0.38789358561851234] [-0.39867489750104795:0.46431972679650718] [1.4426370220405929:10.832049888435186] [19.335482992543181:72.068718169529433] [-39.969802162916743:26.42276464598292] [57.019172682569952:76.910208014413996] [30.324599579057569:61.162559048030786] [18.815766055217111:48.011684024202786] [288:864] [13.346341682635334:57.959584924948885] [33.712183711579861:61.43760922749896] [-0.61319937547451187:0.62153937770977685] [-0.89669039533283523:0.65909770465371353] [3.0487449081657778:22.99343228865207] [0:5] [1.1666666666666667:71.833333333333329] [0:23.859305830548838] [0:1] [-0.91666666666666663:0.77777777777777779] none [0.22222222222222221:1] [0:1] [144:2160] [0:1] [0.47140452079103168:1] [-0.041724617524339362:0.013904982618771726] [-0.055555662723114817:0.020254656762603903] [0:0.5] [3:519] [0:38.923293978290481] [-19.045671761302362:28.881022505392501] [32.710042291054833:43.028209396689874] [6.5557496958226782:21.864850022325829] [0:0] [720:2160] [32.710042291054833:43.028209396689874] [13.637788365073005:27.730267945352242] [-1.1335053716881758:0.54085169955938606] [-1.5529719978413525:0.54534891032515209] [11.620318339565156:17.268694888837878] [0:15.360178958094382] [-12.313774547453754:11.379352675781778] [12.223319423716656:16.421455992580576] [2.773280418468727:13.329432441987796] [0:10.664417979820598] [288:2160] [4.3347368741538403:16.421455992580576] [5.789254265176865:13.365505451700528] [-0.49111154306453703:0.21217931399574883] [-0.60679265960346329:0.26357037589388338] [0.910933252965622:7.0770070426718119] [0:8053.8272453158752] [-5333.6399822150852:6263.9679972107333] [8018.8156066792508:8131.4041927315675] [1778.1340142225256:6222.5500749532175] [0:0] [720:2160] [8018.8156066792508:8131.4041927315675] [3770.3678929321422:7055.4882664474362] [-333.5443242214609:111.90585401671397] [-444.39642315226507:125.50361784798959] [3324.7426179357781:3999.6167498012637] [0:8000] [-5333.333333333333:6222.2222222222226] [8000:8000] [1777.7777777777778:6222.2222222222226] [0:0] [720:2160] [8000:8000] [3771.2361663282536:7055.3368295055752] [-333.79694019471492:111.162575266327] [-444.44530178491857:125.51443019427944] [3325.9176771323923:4000] [0.96474075654709823:2.6889991536464781] [-0.95664592605969778:0.76215168720655169] [2.3481889486719609:3.1443849010391927] [1.5036305490318058:2.4381900624689368] [0.828437003061541:2.0444439343431107] [144:432] [0.7893711997731776:1.988950124469796] [1.5527911703372232:2.4432847008192402] [-0.015523981009605628:0.017027955319284478] [-0.015185249576478432:0.017200091851268237] [0.14386626242923672:0.43169835919466026] [1.1057200391423816:5.3450023728484828] [-0.70606757002290466:1.1126494417450812] [2.304322542110659:5.8053607601561321] [1.4989855395433287:4.8938412185387774] [0.71224454176682572:4.2328891146333127] [144:432] [0.77691197741253437:2.6573506610439894] [1.5451173698502871:4.9032472446127624] [-0.011793383864700262:0.029635039485533563] [-0.014706109271618932:0.027623597788065633] [0.15664127999588742:0.62761564635531242] [0:5.5531695777186787] [-4.2570390752786205:2.5197393219749187] [2.221490710366008:5.8148725235544108] [0.60194466226182741:4.4401090225793265] [0:3.3652175066108141] [288:864] [0.97211527852603496:5.8148725235544108] [1.028108054058146:4.4826966567755564] [-0.063925517471876886:0.062468257900464993] [-0.094960698585001863:0.071013844461391584] [0.17696573934407242:2.4417818278373979]
tree_sizes=1466 1185 1301 1401 2055 1516 1844 2169 2276 2375 2388 2194 2717 2810 2389 3476 3153 2742 3169 3161 3490 3061 3486 3508 3182 3075 2746 2969 3495 3389 3498 3497 3513 3496 3505 3504 3507 3500 3507 3499 3508 3513 3518 3507 3501 3506 3514 3495 3499 3513 3510 3510 3501 3507 3504 3524 3516 3511 3510 3507 3523 3514 3524 3523 3531 3523 3534 3543 3525 3529 3528 3535 3528 3534 3540 3542 3546 3533 3525 3530 3526 3543 3540 3534 3560 3540 3544 3546 3527 3530 3554 3548 3535 3537 3549 3553 3573 3564 3561 3567 3565 3556 3568 3555 3563 3556 3562 3574 3585 3570 3577 3567 3572 3570 3576 3573 3573 3577 3581 3600 3587 3592 3580 3598 3602 3595 3606 3605 3612 3601 3587 3606 3601 3604 3622 3585 3608 3603 3594 3619 3611 3615 3625 3618 3598 3602 3605 3610 3617 3602 3615 3612 3625 3606 3606 3611 3633 3642 3634 3611 3172 3641 3642 3610 3516 3506 3631 2624 3643 3632 3182 3641 3303 3636 3410 3530 2854 2526 2856 2739 2742 3067 2373 3072 3181 3074 2734 2845 2967 1939 2619 1712 2974 2630 2405 2291 2296 2176 1736 1614

Tree=0
num_leaves=13
num_cat=0
split_feature=117 106 26 96 124 117 123 118 115 1 1 23
split_gain=95.5041 156.69 10.9075 4.69115 3.088 2.33256 0.765772 0.524943 0.649097 1.42109e-14 1.42109e-14 1.42109e-14
threshold=2.3796944126174449 2.7955515016751282 38.465543811792067 2.019897665080951 0.013183494973979491 2.3594562258652889 0.022839531123096741 0.60347997028631506 1.5399529089231521 50.818661425183997 51.157022524025173 54.895447870390413
decision_type=8 8 10 8 8 10 10 10 10 10 10 8
left_child=2 3 5 9 11 6 7 -1 -9 -2 -3 -4
right_child=1 10 4 -5 -6 -7 -8 8 -10 -11 -12 -13
leaf_value=0.33862442138263438 0.28673458707851041 0.49535289533485116 0.28673458707851041 0.38455561371644897 0.36984269526914493 0.42549880270040924 0.31636443459704866 0.35062394544423009 0.40559850858605367 0.28673458707851057 0.49535289533485116 0.28673458707851041
leaf_weight=1.2760922908782988 11.504263401031489 30.946858227252964 13.181968480348585 1.3538238108158118 1.1951219737529815 1.4315553307533262 1.11739045381546 1.03642013669014 1.1141516566276548 1.4380329251289374 0.79350918531417747 4.0744266211986533
leaf_count=6 48 195 55 7 6 8 5 5 6 6 5 17
internal_value=0.391044 0.433445 0.311131 0.295998 0.292118 0.369843 0.352309 0.36403 0.379105 0.286735 0.495353 0.286735
internal_weight=70.4636 46.0365 24.4271 14.2961 18.4515 5.97561 4.54405 3.42666 2.15057 12.9423 31.7404 17.2564
internal_count=369 261 108 61 78 30 22 17 11 54 200 72
is_linear=0
shrinkage=1


Tree=1
num_leaves=10
num_cat=0
split_feature=117 106 26 96 124 117 62 118 23
split_gain=84.6727 141.412 9.39686 4.03847 2.65122 2.06928 0.859217 0.263643 1.42109e-14
threshold=2.3796944126174449 2.7955515016751282 38.465543811792067 2.019897665080951 0.013183494973979491 2.3594562258652889 14.595940125591044 0.73473059037269806 55.793334905449193
decision_type=8 8 10 8 8 10 10 10 10
left_child=2 3 5 -2 8 6 7 -1 -4
right_child=1 -3 4 -5 -6 -7 -8 -9 -10
leaf_value=-0.050178456456308973 -0.11660352575538975 0.080467786317487439 -0.11660352575538974 -0.0261581164641786 -0.039944795940161475 0.012626712591780062 -0.083523584064427711 -0.017968099714512353 -0.11660352575538974
leaf_weight=1.8509670495986967 13.226277083158489 31.157398223876953 15.43065659701824 1.3612138181924827 1.2049456089735091 1.4276439845561979 1.7764452546834943 0.96725514531135548 2.204379513859748
leaf_count=9 54 200 63 7 6 8 8 5 9
internal_value=-0.0200506 0.0203155 -0.0943214 -0.108164 -0.111701 -0.0399526 -0.0562899 -0.0391234 -0.116604
internal_weight=70.6072 45.7449 24.8623 14.5875 18.84 6.02231 4.59467 2.81822 17.635
internal_count=369 261 108 61 78 30 22 14 72
is_linear=0
shrinkage=0.05


Tree=2
num_leaves=11
num_cat=0
split_feature=117 106 26 48 124 117 62 115 0 23
split_gain=75.5794 128.346 8.26094 3.54852 2.32947 1.84173 0.754861 0.268833 1.42109e-14 1.42109e-14
threshold=2.3796944126174449 2.7955515016751282 38.465543811792067 181.50000000000003 0.013183494973979491 2.3594562258652889 14.595940125591044 1.9334661514731468 1.0000000180025095e-35 47.112175580212757
decision_type=8 8 10 10 8 10 10 10 2 10
left_child=2 3 5 -2 9 6 7 -1 -3 -4
right_child=1 8 4 -5 -6 -7 -8 -9 -10 -11
leaf_value=-0.04805163184258323 -0.10927300784197208 0.078112162942059762 -0.10927300784197208 -0.02472795919230459 -0.037678972846810037 0.012028468152364418 -0.078322321680366028 -0.015636522643055911 0.078112162942059776 -0.10927300784197208
leaf_weight=1.8623910844326048 13.402781456708906 27.762762427330021 9.1833872944116575 1.367767959833144 1.2133092284202636 1.4238164424896238 1.7990665435791013 0.97421719133853901 2.7457677125930777 8.6869879812002164
leaf_count=9 54 182 37 7 6 8 8 5 18 35
internal_value=-0.0190603 0.0195389 -0.0885716 -0.101444 -0.104721 -0.0377103 -0.0529872 -0.0369188 0.0781122 -0.109273
internal_weight=70.4223 45.2791 25.1432 14.7705 19.0837 6.05949 4.63567 2.83661 30.5085 17.8704
internal_count=369 261 108 61 78 30 22 14 200 72
is_linear=0
shrinkage=0.05


Tree=3
num_leaves=12
num_cat=0
split_feature=117 106 26 96 124 117 62 118 1 23 1
split_gain=67.845 117.032 7.3825 3.17125 2.08623 1.64435 0.67011 0.239824 1.42109e-14 1.42109e-14 7.10543e-15
threshold=2.3796944126174449 2.7955515016751282 38.465543811792067 2.019897665080951 0.013183494973979491 2.3594562258652889 14.595940125591044 0.73473059037269806 29.036700565063985 55.937322879564995 50.818661425183997
decision_type=8 8 10 8 8 10 10 10 8 8 10
left_child=2 3 5 10 9 6 7 -1 -3 -4 -2
right_child=1 8 4 -5 -6 -7 -8 -9 -10 -11 -12
leaf_value=-0.045336388153891849 -0.10313739824937714 0.075999835422563208 -0.10313739824937712 -0.023389620335250272 -0.03558197719768242 0.011457900729778167 -0.073739573094475985 -0.014780901411937672 0.075999835422563569 -0.10313739824937712 -0.10313739824937698
leaf_weight=1.8756956756114989 11.988895654678339 0.74516020715236919 16.234962865710258 1.3735742568969733 1.2203830182552398 1.4200794398784635 1.8148869872093198 0.97649550437927235 29.061248078942299 1.7483806163072575 1.4986119568347938
leaf_count=9 48 5 65 7 6 8 8 5 195 7 6
internal_value=-0.0181982 0.0188524 -0.0836352 -0.0957665 -0.0988443 -0.0356535 -0.0499884 -0.0348752 0.0759998 -0.103137 -0.103137
internal_weight=69.9584 44.6675 25.2909 14.8611 19.2037 6.08716 4.66708 2.85219 29.8064 17.9833 13.4875
internal_count=369 261 108 61 78 30 22 14 200 72 54
is_linear=0
shrinkage=0.05


Tree=4
num_leaves=18
num_cat=0
split_feature=117 106 26 96 123 117 68 118 115 31 1 61 1 23 23 23 1
split_gain=61.1928 107.137 6.6879 2.87451 1.91492 1.47222 0.624362 0.472747 0.57377 0.0165712 1.42109e-14 1.42109e-14 7.10543e-15 7.10543e-15 3.55271e-15 8.88178e-16 4.44089e-16
threshold=2.3796944126174449 2.7955515016751282 38.465543811792067 2.019897665080951 0.021427122534280058 2.3594562258652889 0.16388230657605127 0.60347997028631506 1.5399529089231521 0.060119416780030438 50.549350059416511 1.6090149363962285 50.435314287643074 54.676760063730491 46.902578412183509 64.944560050694491 51.017123041038154
decision_type=8 8 10 8 8 10 10 10 10 10 10 8 10 10 10 10 10
left_child=2 3 5 10 9 6 7 -1 -9 13 -2 14 -13 -4 -3 -16 -14
right_child=1 11 4 -5 -6 -7 -8 8 -10 -11 -12 12 16 -15 15 -17 -18
leaf_value=-0.060514811419750549 -0.097930096749969817 0.074097072360959401 -0.097930096749969761 -0.022135139257669457 -0.039269488136786102 0.010913729230093603 -0.079113758289741459 -0.049020144054900516 0.0019176552572534517 -0.10343720947101631 -0.097930096749969706 0.074097072360959387 0.074097072360959401 -0.097930096749969789 0.074097072360959318 0.074097072360959332 0.074097072360959346
leaf_weight=1.3179553151130705 11.494862526655192 8.5733101963996869 12.744304105639459 1.3787116557359702 1.4841266572475493 1.4164381623268125 1.1579453051090238 1.0695763081312182 1.1442947685718534 1.4914099872112263 1.9991065263748176 15.838827311992647 0.72655171155929466 3.4984364211559287 2.0343447923660292 0.87186205387115467 1.0171723961830137
leaf_count=6 46 59 51 7 7 8 5 5 6 6 8 109 5 14 14 6 7
internal_value=-0.0174405 0.0182414 -0.0793439 -0.0909038 -0.0938274 -0.0337596 -0.0472521 -0.036806 -0.0226917 -0.0983932 -0.0979301 0.0740971 0.0740971 -0.0979301 0.0740971 0.0740971 0.0740971
internal_weight=69.2592 43.9347 25.3245 14.8727 19.2183 6.10621 4.68977 3.53183 2.21387 17.7342 13.494 29.0621 17.5826 16.2427 11.4795 2.90621 1.74372
internal_count=369 261 108 61 78 30 22 17 11 71 54 200 121 65 79 20 12
is_linear=0
shrinkage=0.05


Tree=5
num_leaves=13
num_cat=0
split_feature=117 106 26 96 124 117 115 23 118 24 23 105
split_gain=55.402 98.4101 6.12368 2.63688 1.85739 1.32112 0.602656 1.08559 0.322037 0.00117505 1.37558e-05 1.42109e-14
threshold=2.3796944126174449 2.7955515016751282 38.465543811792067 2.019897665080951 0.013183494973979491 2.3594562258652889 1.9334661514731468 47.112175580212757 0.73473059037269806 4.9268954144382535 55.793334905449193 -0.13137023094832109
decision_type=8 8 10 8 8 10 10 10 10 8 10 10
left_child=2 3 5 -2 9 6 7 8 -1 10 -4 -3
right_child=1 11 4 -5 -6 -7 -8 -9 -10 -11 -12 -13
leaf_value=-0.048675435856234371 -0.093458808192689202 0.072376094454077639 -0.093458808192689216 -0.020957537276277916 -0.030157612884661567 0.010394710939266374 -0.010005188466340523 -0.084026332883535948 -0.0090783075243167852 -0.095036201433690154 -0.093299712795419515 0.072376094454077597
leaf_weight=1.0704973042011294 13.433868795633312 19.09247137606144 15.175296232104296 1.3832510560750968 1.234949067234999 1.4128967225551603 0.98695524036884297 1.6608476638793943 0.98680508136749256 1.2463051676750243 1.4922610819339741 9.192671403288843
leaf_count=5 54 135 61 7 6 8 5 7 5 5 6 65
internal_value=-0.0167667 0.0176943 -0.0755532 -0.0866905 -0.0894666 -0.0320053 -0.0447376 -0.053957 -0.0296823 -0.0935553 -0.0934446 0.0723761
internal_weight=68.3691 43.1023 25.2668 14.8171 19.1488 6.118 4.70511 3.71815 2.0573 17.9139 16.6676 28.2851
internal_count=369 261 108 61 78 30 22 17 10 72 67 200
is_linear=0
shrinkage=0.05


Tree=6
num_leaves=16
num_cat=0
split_feature=48 117 53 26 124 124 68 117 108 114 32 31 31 68 2
split_gain=51.1171 51.4166 45.1154 6.8401 1.81209 1.20065 0.653037 0.124725 0.111665 0.051895 0.000939391 1.09685e-05 2.45054e-07 2.98195e-09 1.42109e-14
threshold=187.50000000000003 2.3796944126174449 inf 38.256224998251582 0.013183494973979491 0.03487222017942785 0.013830553589017816 2.3130187551155852 1.5626268232082052 0.17912041466907211 0.017258871577655037 0.047971400993333919 0.03196497642217918 -0.0048264572786569067 1.0000000180025095e-35
decision_type=10 10 8 8 10 10 10 10 10 8 10 10 10 10 8
left_child=1 2 -1 5 8 6 7 -4 10 -2 11 12 13 14 -5
right_child=9 -3 3 4 -6 -7 -8 -9 -10 -11 -12 -13 -14 -15 -16
leaf_value=0.07081381862533756 0.083089713995221609 0.07081381862533756 -0.043413501119923113 -0.089581221963072374 -0.028571764670600793 0.005210989166891989 -0.076469343458700656 -0.023773076388092545 -0.1049952431712886 0.070813818625337546 -0.090979568291686935 -0.089440503514819747 -0.089560428770139866 -0.089583740297465742 -0.089581221963072361
leaf_weight=5.7716424465179434 0.92532372474670133 9.0697238445281965 1.4831398725509637 6.165456399321557 1.2382301986217488 1.7084610015153883 1.1544927209615705 1.7766216993331907 1.2300087511539448 12.367805242538452 1.2374200969934452 1.4790892302989949 1.4796187579631794 1.2331004291772938 18.9896057099104
leaf_count=42 6 66 7 25 6 9 5 9 5 90 5 6 6 5 77
internal_value=-0.016166 -0.0377815 -0.0596947 -0.0789223 -0.0879145 -0.0303794 -0.0441541 -0.0327092 -0.0902241 0.0716683 -0.0896301 -0.0895732 -0.0895802 -0.0895813 -0.0895812
internal_weight=67.3097 54.0166 44.9469 39.1752 33.0525 6.12272 4.41425 3.25976 31.8143 13.2931 30.5843 29.3469 27.8678 26.3882 25.1551
internal_count=369 273 207 165 135 30 21 16 129 96 124 119 113 107 102
is_linear=0
shrinkage=0.05


Tree=7
num_leaves=19
num_cat=0
split_feature=48 117 49 26 123 117 116 124 33 108 114 69 118 32 23 33 1 1
split_gain=47.2224 47.228 41.2036 6.40764 1.75327 1.1579 0.562227 1.00902 0.240709 0.0819702 0.0418582 0.0226809 8.42749e-06 7.10077e-07 8.11465e-09 1.7053e-13 3.55271e-15 4.44089e-16
threshold=187.50000000000003 2.3796944126174449 36.231240369011509 38.256224998251582 0.021427122534280058 2.3594562258652889 0.92404194801011874 0.015967118235684859 15.500060845114026 1.5626268232082052 0.17912041466907211 0.0045567695255157529 1.7847133922310296 0.014634378908583922 54.895447870390413 3.3985539597394427 50.549350059416511 51.157022524025173
decision_type=10 10 8 8 10 10 10 10 10 10 8 10 10 10 10 8 10 10
left_child=1 2 -1 5 9 6 8 -8 -4 11 -2 12 13 14 15 -5 -12 -18
right_child=10 -3 3 4 -6 -7 7 -9 -10 -11 16 -13 -14 -15 -16 -17 17 -19
leaf_value=0.069390885455346676 0.080528034189920605 0.06939088545534669 -0.074672134908137483 -0.086189644911630128 -0.031293700032362391 0.010854898638632463 -0.054065454178807884 0.0098646077974333338 -0.041855092939323713 -0.099658901497957336 0.06939088545534669 -0.092543900880021346 -0.086064643118361733 -0.086154044989255218 -0.086193499042511057 -0.086189663054531712 0.069390885455346538 0.069390885455346593
leaf_weight=5.5998513400554657 0.90747106075286588 8.79976639151573 1.1604770570993417 1.2179070562124454 1.4786791503429402 1.4158367216587064 1.3259556740522387 1.1546819806098936 1.077666103839874 1.2310221791267384 10.533053711056708 1.4732116162776936 1.4606711864471424 1.4612574279308308 1.4615134298801411 22.896654337644577 0.79997876286506719 0.66664896905422211
leaf_count=42 6 66 5 5 7 8 6 6 5 5 79 6 6 6 6 94 6 5
internal_value=-0.0156232 -0.0364329 -0.0573992 -0.075691 -0.0844926 -0.0288022 -0.040701 -0.0243074 -0.0588707 -0.0870137 0.0701739 -0.0864944 -0.0861816 -0.0861879 -0.0861899 -0.0861897 0.0693909 0.0693909
internal_weight=66.1223 53.2152 44.4154 38.8155 32.6809 6.13462 4.71878 2.48064 2.23814 31.2022 12.9072 29.9712 28.498 27.0373 25.5761 24.1146 11.9997 1.46663
internal_count=369 273 207 165 135 30 22 12 10 128 96 123 117 111 105 99 90 11
is_linear=0
shrinkage=0.05


Tree=8
num_leaves=20
num_cat=0
split_feature=48 117 49 61 117 116 26 118 108 114 24 60 23 68 1 24 1 23 23
split_gain=43.7138 43.4891 37.743 6.04982 5.16615 2.06174 1.32951 0.449918 0.065783 0.0339347 0.000944392 1.4458e-05 2.74583e-06 2.61618e-09 1.42109e-14 2.13163e-14 3.55271e-15 1.77636e-15 8.88178e-16
threshold=187.50000000000003 2.3796944126174449 36.231240369011509 1.6718683324388535 2.3594562258652889 0.81494954160621635 35.571618630325666 0.60347997028631506 1.5626268232082052 0.17912041466907211 4.6229111807236238 13.186082320749396 55.097133097557226 -0.010338068500167068 50.435314287643074 -2.869056282431337 51.157022524025173 55.793334905449193 64.944560050694491
decision_type=10 10 8 10 10 10 8 10 10 8 10 10 10 10 10 10 10 10 8
left_child=1 2 -1 6 5 -5 -4 -7 10 -2 11 12 13 14 15 -8 -11 -3 -19
right_child=9 17 3 4 -6 7 8 -9 -10 16 -12 -13 -14 -15 -16 -17 -18 18 -20
leaf_value=0.068090962653459375 0.078232231739807201 0.068090962653459389 -0.030560791431153724 -0.097083040726821057 0.052289651144749483 -0.051390452792618259 -0.08320112693069831 -0.013097461746198823 -0.09507201970317497 0.068090962653459389 -0.084497022639693789 -0.083055064286846447 -0.083130173949942349 -0.083203521540031522 -0.083201126930698366 -0.083201131073216528 0.068090962653459194 0.068090962653459333 0.068090962653459305
leaf_weight=5.425832211971283 0.8878913223743411 5.9425781369209272 1.2228276878595377 1.7410612702369679 1.5135101824998853 1.3274347186088564 19.664289653301253 1.8170900493860243 1.2260000556707371 10.980850905179976 1.4481004774570454 1.9167463183403004 1.4382250905036915 1.1990595161914885 2.3980841040611258 1.4388504624366785 0.64593240618705827 1.8086107373237612 0.77511888742446888
leaf_count=42 6 46 6 7 9 6 82 9 5 85 6 8 6 5 10 6 5 14 6
internal_value=-0.0151329 -0.0352181 -0.0553392 -0.0728018 -0.0284264 -0.0534315 -0.0816889 -0.0292625 -0.0837235 0.0688105 -0.0832519 -0.0831876 -0.0831973 -0.0832012 -0.0832011 -0.0832011 0.068091 0.068091 0.068091
internal_weight=64.8181 52.3034 43.7771 38.3513 6.3991 4.88559 31.9522 3.14452 30.7294 12.5147 29.5034 28.0553 26.1385 24.7003 23.5012 21.1031 11.6268 8.52631 2.58373
internal_count=369 273 207 165 31 22 134 15 128 96 123 117 109 103 98 88 90 66 20
is_linear=0
shrinkage=0.05


Tree=9
num_leaves=21
num_cat=0
split_feature=48 117 53 61 117 116 26 124 108 114 123 60 125 63 32 1 3 1 23 24
split_gain=40.5468 40.1466 34.6776 5.70507 4.68132 1.88507 1.27753 0.42688 0.0514009 0.0276369 0.000753775 1.15193e-05 8.5783e-06 1.12115e-07 7.39604e-11 7.10543e-15 7.10543e-15 3.55271e-15 1.77636e-15 4.44089e-16
threshold=187.50000000000003 2.3796944126174449 inf 1.6718683324388535 2.3594562258652889 0.81494954160621635 35.571618630325666 0.015967118235684859 1.5626268232082052 0.17912041466907211 0.0044013112920634973 12.79419197952385 0.18567050434876389 12.306272790614381 -0.031151525470217132 50.818661425183997 52.571453816875952 50.549350059416511 57.096065785464596 9.2071860867157529
decision_type=10 10 8 10 10 10 8 10 10 8 10 10 10 10 10 10 8 10 10 8
left_child=1 2 -1 6 5 -5 -4 -7 10 -2 11 13 -13 14 15 16 -8 -11 -3 -20
right_child=9 18 3 4 -6 7 8 -9 -10 17 -12 12 -14 -15 -16 -17 -18 -19 19 -21
leaf_value=0.066900133340850418 0.07616507665375262 0.066900133340850432 -0.028953775867078032 -0.092758759344310326 0.050184195631577291 -0.049360540482801092 -0.080550549639459929 -0.012060364398381457 -0.091089910383115646 0.066900133340850418 -0.081717828503436202 -0.080543262465847032 -0.08038021219287704 -0.08053474981210168 -0.080550956499212373 -0.080550549639460123 -0.080550549639460123 0.066900133340850335 0.066900133340850362 0.066900133340850362
leaf_weight=5.2507316172122946 0.86692033708095273 6.3758883923292142 1.2260750681161905 1.7313353568315495 1.4985406398773191 1.3266508281230929 7.7690150141716172 1.8184608966112135 1.2158586382865895 9.8763761371374112 1.4234583377838124 1.4124665558338159 1.880842477083206 1.1769761890172947 1.1771272718906463 1.4125481843948353 12.712933659553526 1.3751916140317924 0.75010451674461343 1.1251567751169202
leaf_count=42 6 51 6 7 9 6 33 9 5 79 6 6 8 5 5 6 54 11 6 9
internal_value=-0.014692 -0.0341289 -0.0535002 -0.0702326 -0.0271073 -0.0508592 -0.0789861 -0.0277941 -0.0810186 0.0675629 -0.0805959 -0.0805379 -0.0804501 -0.0805498 -0.0805506 -0.0805505 -0.0805505 0.0669001 0.0669001 0.0669001
internal_weight=63.4027 51.2842 43.033 37.7823 6.37499 4.87645 31.4073 3.14511 30.1812 12.1185 28.9654 27.5419 3.29331 24.2486 23.0716 21.8945 20.4819 11.2516 8.25115 1.87526
internal_count=369 273 207 165 31 22 134 15 128 96 123 117 14 103 98 93 87 90 66 15
is_linear=0
shrinkage=0.05


Tree=10
num_leaves=21
num_cat=0
split_feature=48 117 53 61 117 116 26 118 108 114 123 60 125 63 32 1 24 31 31 23
split_gain=37.6727 37.1363 31.9375 5.40149 4.24902 1.73842 1.23505 0.38906 0.0405312 0.0226004 0.000593237 9.0267e-06 6.72203e-06 8.79056e-08 5.50102e-11 7.10543e-15 7.10543e-15 7.10543e-15 3.55271e-15 1.77636e-15
threshold=187.50000000000003 2.3796944126174449 inf 1.6718683324388535 2.3594562258652889 0.81494954160621635 35.571618630325666 0.60347997028631506 1.5626268232082052 0.17912041466907211 0.0044013112920634973 12.79419197952385 0.18567050434876389 12.306272790614381 -0.031151525470217132 50.549350059416511 -3.9282711770694472 -0.47393357227977156 -0.43689721768795148 56.117472066732738
decision_type=10 10 8 10 10 10 8 10 10 8 10 10 10 10 10 10 10 10 10 10
left_child=1 2 -1 6 5 -5 -4 -7 10 -2 11 13 -13 14 15 16 17 -8 -19 -3
right_child=9 19 3 4 -6 7 8 -9 -10 -11 -12 12 -14 -15 -16 -17 -18 18 -20 -21
leaf_value=0.065806499941275062 0.074296017667937239 0.065806499941275062 -0.027446898934550004 -0.088998333249731637 0.048203498997826486 -0.047020279629524028 -0.078186196265505298 -0.011401118948762248 -0.087603133442049105 0.065806499941275062 -0.079232138365244634 -0.078179670093805026 -0.078033808852315631 -0.07817205789716708 -0.07818655085264356 -0.078186196265505437 -0.078186196265505228 -0.078186196265505395 -0.078186196265505437 0.065806499941275035
leaf_weight=5.0755349546670905 0.84485195577144345 5.9214574471116057 1.2286490499973322 1.7146680951118458 1.4825203865766523 1.3251158446073534 10.604839652776734 1.8190103769302366 1.2013958245515812 10.876146331429482 1.3954160809516896 1.3831504881381982 1.8415198922157285 1.1525384485721577 1.1527041494846404 1.8443199396133412 1.3832399547100092 2.3053999245166779 5.3024198263883582 2.0543831959366798
leaf_count=42 6 49 6 7 9 6 46 9 5 90 6 6 8 5 5 8 6 10 23 17
internal_value=-0.014291 -0.03314 -0.0518354 -0.0679136 -0.0258915 -0.0484994 -0.0765667 -0.0264131 -0.0786079 0.0664184 -0.0782269 -0.0781749 -0.0780964 -0.0781855 -0.0781862 -0.0781862 -0.0781862 -0.0781862 -0.0781862 0.0658065
internal_weight=61.9093 50.1883 42.2124 37.1369 6.34131 4.85879 30.7956 3.14413 29.5669 11.721 28.3655 26.9701 3.22467 23.7455 22.5929 21.4402 19.5959 18.2127 7.60782 7.97584
internal_count=369 273 207 165 31 22 134 15 128 96 123 117 14 103 98 93 85 79 33 66
is_linear=0
shrinkage=0.05


Tree=11
num_leaves=19
num_cat=0
split_feature=48 117 49 61 117 116 26 124 108 114 24 68 32 68 32 24 24 24
split_gain=35.0555 34.4139 29.4761 5.13197 3.8622 1.61488 1.20012 0.370648 0.0322157 0.0185505 0.000479221 8.02703e-06 1.95331e-06 1.00904e-08 3.92788e-11 7.10543e-15 7.10543e-15 7.10543e-15
threshold=187.50000000000003 2.3796944126174449 36.231240369011509 1.6718683324388535 2.3594562258652889 0.81494954160621635 35.571618630325666 0.015967118235684859 1.5626268232082052 0.17912041466907211 4.6229111807236238 0.0044670015499436383 -1.0000000180025095e-35 -0.0048264572786569067 -0.031151525470217132 -4.9425350723418644 -5.6551375749877755 -9.8299917583436809
decision_type=10 10 8 10 10 10 8 10 10 8 10 10 10 10 10 10 10 10
left_child=1 2 -1 6 5 -5 -4 -7 10 -2 11 12 13 14 15 16 17 -8
right_child=9 -3 3 4 -6 7 8 -9 -10 -11 -12 -13 -14 -15 -16 -17 -18 -19
leaf_value=0.06479982071495656 0.072599725139722737 0.064799820714956574 -0.026031355272288604 -0.085701267425699931 0.046333259865017476 -0.045261034093969491 -0.076066368158578548 -0.010473971314307787 -0.084527358324887558 0.06479982071495656 -0.077016608263209413 -0.075953814218494786 -0.076004761257544837 -0.076071235385262934 -0.076066671273602129 -0.076066368158578535 -0.076066368158578646 -0.076066368158578646
leaf_weight=4.9010874330997467 0.82194301486015042 7.7017088234424582 1.2306337058544183 1.6921598464250553 1.4656761437654493 1.3220869749784472 15.767513960599919 1.8195299506187437 1.1833079755306233 10.502330213785172 1.3648468554019917 1.7995406985282887 1.3504898250103057 1.1263171136379231 1.1262550503015507 2.2525019943714168 1.8020015954971302 1.126250997185706
leaf_count=42 6 66 6 7 9 6 70 9 5 90 6 8 6 5 5 10 8 5
internal_value=-0.0139246 -0.0322373 -0.0503198 -0.0658077 -0.0247652 -0.0463234 -0.0743888 -0.0251134 -0.076448 0.065366 -0.0761031 -0.0760557 -0.0760632 -0.0760666 -0.0760664 -0.0760664 -0.0760664 -0.0760664
internal_weight=60.3562 49.0319 41.3302 36.4291 6.29945 4.83378 30.1297 3.14162 28.899 11.3243 27.7157 26.3509 24.5513 23.2008 22.0745 20.9483 18.6958 16.8938
internal_count=369 273 207 165 31 22 134 15 128 96 123 117 109 103 98 93 83 75
is_linear=0
shrinkage=0.05


Tree=12
num_leaves=24
num_cat=0
split_feature=48 117 49 61 117 116 26 118 69 108 114 32 60 125 31 32 1 1 1 23 37 2 68
split_gain=32.6646 31.9424 27.2551 4.89136 3.51482 1.53615 1.17129 0.780688 0.160037 0.0257859 0.0152776 0.000388857 6.51262e-06 3.69114e-06 6.97611e-10 7.10543e-14 3.55271e-15 1.77636e-15 1.77636e-15 1.77636e-15 8.88178e-16 4.44089e-16 4.44089e-16
threshold=187.50000000000003 2.3796944126174449 36.231240369011509 1.6718683324388535 2.3594562258652889 0.92404194801011874 35.571618630325666 0.60347997028631506 0.24297373831987892 1.5626268232082052 0.17912041466907211 0.015601303854811082 12.79419197952385 0.18567050434876389 -0.047245696950469089 -0.032092146099169751 51.017123041038154 50.307373996351082 29.036700565063985 64.944560050694491 1.0000000180025095e-35 -16.47793828428847 0.0044670015499436383
decision_type=10 10 8 10 10 10 8 10 8 10 8 10 10 10 10 10 10 10 10 10 2 10 8
left_child=1 2 20 6 5 8 -4 -7 -5 11 -2 12 14 -14 15 -8 17 18 21 -3 -1 -12 -22
right_child=10 19 3 4 -6 7 9 -9 -10 -11 16 -13 13 -15 -16 -17 -18 -19 -20 -21 22 -23 -24
leaf_value=0.063871207882439524 0.071054991217022939 0.063871207882439537 -0.024699466700752546 -0.086127520923629936 0.044561388249783257 -0.043184688485186695 -0.074157131550477901 0.01309904532841354 -0.059891398175064392 -0.081796475303715296 0.063871207882439496 -0.075023305745564844 -0.074135133632006939 -0.074032592868486569 -0.074158423383531499 -0.074157121226853029 0.063871207882439399 0.063871207882439399 0.063871207882439537 0.063871207882439454 0.063871207882439454 0.063871207882439843 0.063871207882439496
leaf_weight=3.039499506354332 0.79841792583465299 6.7544433474540702 1.2321039587259317 1.2040677368640889 1.4482061117887495 1.3182853758335116 19.547873944044124 1.1566717028617857 1.1237015575170519 1.1622038632631291 1.350888669490814 1.3321422934532154 1.7565532326698297 1.7539395391941068 1.098215639591223 1.5374729633331288 0.78801839053630907 0.78801839053630907 6.6418692916631699 0.67544433474540699 0.5628702789545057 0.56287027895450226 1.1257405579090116
leaf_count=27 6 60 6 5 9 6 89 6 5 5 12 6 8 8 5 7 7 7 59 6 5 5 10
internal_value=-0.0135881 -0.0314091 -0.0489322 -0.0638838 -0.0237161 -0.0443044 -0.0724182 -0.0168805 -0.0734624 -0.074504 0.064396 -0.0741904 -0.0741472 -0.0740839 -0.0741572 -0.0741571 0.0638712 0.0638712 0.0638712 0.0638712 0.0638712 0.0638712 0.0638712
internal_weight=58.7595 47.8294 40.3995 35.6714 6.25093 4.80273 29.4205 2.47496 2.32777 28.1884 10.9301 27.0262 25.6941 3.51049 22.1836 21.0853 10.1317 9.34365 8.55563 7.42989 4.72811 1.91376 1.68861
internal_count=369 273 207 165 31 22 134 12 10 128 96 123 117 16 101 96 90 83 76 66 42 17 15
is_linear=0
shrinkage=0.05


Tree=13
num_leaves=25
num_cat=0
split_feature=48 117 53 61 117 116 26 25 108 114 25 123 68 32 68 32 1 18 1 1 23 38 49 38
split_gain=30.4737 29.69 25.2419 4.67789 3.2009 1.44111 1.1474 0.383551 0.0207672 0.0126207 0.00237442 0.00031255 5.10631e-06 1.59665e-06 8.07329e-09 2.29221e-11 7.10543e-15 7.10543e-15 3.55271e-15 1.77636e-15 1.77636e-15 8.88178e-16 8.88178e-16 4.44089e-16
threshold=187.50000000000003 2.3796944126174449 inf 1.6718683324388535 2.3594562258652889 0.81494954160621635 35.571618630325666 58.49021321465387 1.5626268232082052 0.17912041466907211 57.682788906476006 0.0044013112920634973 0.0044670015499436383 -1.0000000180025095e-35 -0.0048264572786569067 -0.031151525470217132 38.532776354489066 25.202066071017295 51.017123041038154 50.191726793028039 60.665851700721227 0.15277777777777782 0.4031551594816139 0.3000000000000001
decision_type=10 10 8 10 10 10 8 10 10 8 10 10 10 10 10 10 8 10 10 10 10 2 8 2
left_child=1 2 21 6 5 -5 -4 10 11 -2 -7 12 13 14 15 16 -8 -18 19 -11 -3 22 -1 -23
right_child=9 20 3 4 -6 7 8 -9 -10 18 -12 -13 -14 -15 -16 -17 17 -19 -20 -21 -22 23 -24 -25
leaf_value=0.063012934559519757 0.069643962642192608 0.063012934559519784 -0.023444495645910945 -0.080424911238344166 0.042877636386308524 -0.032758388235323274 -0.072430519997138884 0.0032288534444169397 -0.079357918674356015 0.063012934559519798 -0.036087129948286008 -0.073217334303649961 -0.072338014220091146 -0.072373335288173815 -0.07243498681206996 -0.07243075768879069 -0.07243051999713937 -0.072430519997139287 0.063012934559519632 0.063012934559519659 0.063012934559519715 0.063012934559519715 0.063012934559519743 0.063012934559519715
leaf_weight=2.1701022982597351 0.77447187900542935 6.1847915500402442 1.2331263124942804 1.6368098109960545 1.4302827864885328 1.0743985623121268 2.5653544664383103 0.98870669305324543 1.1386159658431996 8.0293785035610163 1.0684964954853056 1.297646790742873 1.7075405716896046 1.2814263105392516 1.0689786821603764 1.0689020454883564 15.819685876369476 1.4964567720890052 0.75953580439090806 0.97654603421688158 0.97654603421688069 0.65103068947792031 0.75953580439090673 0.9765460342168808
leaf_count=20 6 57 6 7 9 5 12 5 5 74 5 6 8 6 5 5 74 7 7 9 9 6 7 9
internal_value=-0.0132771 -0.0306444 -0.047653 -0.0621134 -0.0227266 -0.0424046 -0.0706269 -0.0225323 -0.0727469 0.0635002 -0.0344182 -0.0724607 -0.0724215 -0.0724276 -0.0724307 -0.0724305 -0.0724305 -0.0724305 0.0630129 0.0630129 0.0630129 0.0630129 0.0630129 0.0630129
internal_weight=57.1349 46.595 39.4336 34.8764 6.19869 4.76841 28.6777 3.1316 27.4446 10.5399 2.1429 26.306 25.0083 23.3008 22.0194 20.9504 19.8815 17.3161 9.76546 9.00592 7.16134 4.55721 2.92964 1.62758
internal_count=369 273 207 165 31 22 134 15 128 96 10 123 117 109 103 98 93 81 90 83 66 42 27 15
is_linear=0
shrinkage=0.05


Tree=14
num_leaves=21
num_cat=0
split_feature=48 117 49 61 117 116 26 124 69 48 114 31 108 69 118 68 32 1 1 23
split_gain=28.4616 27.6319 23.4117 4.48513 2.91753 1.37572 1.12755 0.764089 0.144823 0.0168211 0.0104549 0.000281001 0.000164005 6.66736e-06 1.57126e-07 5.94065e-09 1.90994e-11 7.10543e-15 3.55271e-15 1.77636e-15
threshold=187.50000000000003 2.3796944126174449 36.231240369011509 1.6718683324388535 2.3594562258652889 0.92404194801011874 35.571618630325666 0.015967118235684859 0.24297373831987892 169.50000000000003 0.17912041466907211 0.060119416780030438 1.5486341042053435 0.0039665400920187027 1.7767871666912367 -0.010338068500167068 -0.031151525470217132 30.150556108526558 50.596739184591961 60.665851700721227
decision_type=10 10 8 10 10 10 8 8 10 10 8 10 10 10 10 10 10 8 10 8
left_child=1 2 -1 6 5 8 -4 -7 -5 11 -2 12 13 14 15 16 17 -8 -12 -3
right_child=10 19 3 4 -6 7 9 -9 -10 -11 18 -13 -14 -15 -16 -17 -18 -19 -20 -21
leaf_value=0.062218252938099287 0.068351459057235844 0.062218252938099294 -0.02226050576794358 -0.081060045385849155 0.04127324952546129 -0.040925144517213984 -0.070863304837046212 0.014838412729909989 -0.055752538583390403 -0.07662226104261638 0.062218252938099294 -0.071591826977668152 -0.070207318601952895 -0.070768448065660003 -0.070845213825660419 -0.0708672019212917 -0.070863525521369777 -0.070863304837047253 0.062218252938099183 0.062218252938099239
leaf_weight=4.3889143913984299 0.75027467310428342 5.9563838168978682 1.23375999927521 1.1648461520671838 1.4120564460754392 1.3111382573843005 1.454147204756757 1.1558494567871092 1.0983060002326963 1.3353843390941609 8.4643348976969701 1.2621724903583516 1.0240376740694035 2.07345026731491 1.2459659874439228 1.0387562364339888 1.0386810153722752 16.203354567289352 0.94048165529966432 0.94048165529966343
leaf_count=42 6 57 6 5 9 6 7 6 5 6 81 6 5 10 6 5 5 78 9 9
internal_value=-0.0129891 -0.0299361 -0.04647 -0.0604787 -0.0217973 -0.0406253 -0.0689915 -0.0147984 -0.0687783 -0.0711528 0.0626714 -0.0708646 -0.0708265 -0.070854 -0.0708624 -0.0708635 -0.0708633 -0.0708633 0.0622183 0.0622183
internal_weight=55.4928 45.3377 38.4408 34.0519 6.1422 4.73014 27.9097 2.46699 2.26315 26.6759 10.1551 25.3406 24.0784 23.0544 20.9809 19.7349 18.6962 17.6575 9.40482 6.89687
internal_count=369 273 207 165 31 22 134 12 10 128 96 122 116 111 101 95 90 85 90 66
is_linear=0
shrinkage=0.05


Tree=15
num_leaves=31
num_cat=0
split_feature=48 117 49 61 117 116 26 23 115 108 114 24 68 9 32 108 68 60 32 1 1 4 4 26 26 38 38 48 48 48
split_gain=26.6092 25.7462 21.7428 4.30998 2.66119 1.30806 1.11102 0.393241 0.809022 0.0139354 0.00868303 0.000216057 4.20074e-06 1.61002e-06 1.04223e-06 1.22566e-08 5.67962e-09 4.00817e-11 7.4607e-14 3.55271e-15 1.77636e-15 1.77636e-15 1.77636e-15 1.77636e-15 8.88178e-16 8.88178e-16 4.44089e-16 4.44089e-16 4.44089e-16 2.22045e-16
threshold=187.50000000000003 2.3796944126174449 36.231240369011509 1.6718683324388535 2.3594562258652889 0.81494954160621635 35.571618630325666 47.112175580212757 1.9334661514731468 1.5626268232082052 0.17912041466907211 4.6229111807236238 0.0044670015499436383 0.26735160456996948 -1.0000000180025095e-35 1.5202195616209921 -0.0048264572786569067 12.371893129948598 -0.032092146099169751 31.084702252990123 51.157022524025173 49.205670393150264 36.400569759799431 48.899463177659136 43.600721337878419 -0.24999999999999997 -0.47222222222222215 97.500000000000014 109.50000000000001 49.500000000000007
decision_type=10 10 8 10 10 10 8 10 10 10 8 10 10 10 10 10 10 10 10 8 10 10 8 10 10 2 2 8 8 8
left_child=1 2 25 6 5 -5 -4 -7 -9 11 -2 12 13 14 15 16 17 18 19 -8 21 22 -12 24 -3 26 27 29 -27 -1
right_child=10 23 3 4 -6 7 9 8 -10 -11 20 -13 -14 -15 -16 -17 -18 -19 -20 -21 -22 -23 -24 -25 -26 28 -28 -29 -30 -31
leaf_value=0.061481222225490323 0.06716451341413511 0.061481222225490351 -0.021142224147288422 -0.076188093545391689 0.039740763882467646 0.0058417973809482609 -0.069436030757535794 -0.060998041246714207 0.00078316618886138136 -0.075242417446158547 0.061481222225490587 -0.070106102305051543 -0.069347223570289371 -0.069369133917925208 -0.069388796249940321 -0.069440813943761587 -0.069439912980114579 -0.069436328306364412 -0.06943601887375711 -0.069436030757536391 0.061481222225490142 0.061481222225490142 0.061481222225490351 0.061481222225490351 0.061481222225490309 0.06148122222549033 0.061481222225490233 0.061481222225490254 0.061481222225490254 0.061481222225490254
leaf_weight=0.60337691009044592 0.72597329318523129 2.21238200366497 1.2340575009584451 1.5692283511161793 1.3936570882797239 0.98859599232673678 1.8140545338392406 1.1413262337446215 0.98911678791046131 1.0871732383966435 1.0056281834840728 1.2256044149398793 1.6092378795146931 1.0062731355428685 1.2080700993537963 1.6126674860715855 1.0078965574502969 1.2093778550624836 1.4109309017658223 12.69838173687458 0.5028140917420395 0.5028140917420395 7.0393972843885431 3.5196986421942711 0.9050653651356696 1.2067538201808925 0.60337691009044681 0.60337691009044658 0.60337691009044658 0.60337691009044658
leaf_count=6 6 22 6 7 9 5 9 5 5 5 10 6 8 5 6 8 5 6 7 63 5 5 70 35 9 12 6 6 6 6
internal_value=-0.0127212 -0.0292774 -0.0453712 -0.0589624 -0.0209211 -0.0389537 -0.0674924 -0.0202206 -0.0323144 -0.0697017 0.0619032 -0.0694588 -0.0694252 -0.0694309 -0.0694339 -0.0694366 -0.0694363 -0.0694361 -0.069436 -0.069436 0.0614812 0.0614812 0.0614812 0.0614812 0.0614812 0.0614812 0.0614812 0.0614812 0.0614812 0.0614812
internal_weight=53.8431 44.0664 37.4293 33.2056 6.08192 4.68827 27.1237 3.11904 2.13044 25.8897 9.77663 24.8025 23.5769 21.9677 20.9614 19.7533 18.1406 17.1327 15.9234 14.5124 9.05065 8.54784 8.04503 6.63715 3.11745 4.22364 2.41351 1.81013 1.81013 1.20675
internal_count=369 273 207 165 31 22 134 15 10 128 96 123 117 109 104 98 90 85 79 72 90 85 80 66 31 42 24 18 18 12
is_linear=0
shrinkage=0.05


Tree=16
num_leaves=28
num_cat=0
split_feature=48 117 53 61 117 116 26 23 115 108 114 31 69 96 118 108 68 9 23 32 1 23 23 40 45 45 46
split_gain=24.9015 24.0159 20.2183 4.14583 2.43036 1.24138 1.09722 0.357175 0.739355 0.0113849 0.0072283 0.0001787 4.76051e-06 1.40069e-06 1.05541e-07 1.15719e-08 4.71407e-09 8.20997e-11 1.23457e-11 7.81597e-14 3.55271e-15 3.55271e-15 1.77636e-15 8.88178e-16 8.88178e-16 4.44089e-16 4.44089e-16
threshold=187.50000000000003 2.3796944126174449 inf 1.6718683324388535 2.3594562258652889 0.81494954160621635 35.571618630325666 47.112175580212757 1.9334661514731468 1.5626268232082052 0.17912041466907211 0.060119416780030438 0.0039665400920187027 1.9810376001548946 1.7767871666912367 1.5202195616209921 -0.010338068500167068 0.25972637325954634 48.456143297516583 -0.032092146099169751 51.017123041038154 44.908167175839459 19.985094541917046 0.70000000000000007 -1.0000000180025095e-35 -0.013900152263531298 -0.0062692950487368984
decision_type=10 10 8 10 10 10 8 10 10 10 8 10 10 10 10 10 10 10 10 10 10 10 10 2 2 2 2
left_child=1 2 23 6 5 -5 -4 -7 -9 11 -2 12 13 14 15 16 17 18 19 21 -12 -8 -3 24 25 -1 -27
right_child=10 22 3 4 -6 7 9 8 -10 -11 20 -13 -14 -15 -16 -17 -18 -19 -20 -21 -22 -23 -24 -25 -26 26 -28
leaf_value=0.060796601463750738 0.066071943315953854 0.060796601463750877 -0.020084960366644689 -0.074278035519234592 0.038273759287008741 0.0055477295797820847 -0.068132258500881934 -0.05842768647080418 0.00074400108347405221 -0.073451109525680111 0.060796601463750877 -0.06875096341045156 -0.068047363248909379 -0.068070558625519417 -0.068117377395473994 -0.068137276281410947 -0.068135873819917259 -0.068132742695078241 -0.068132425987136896 -0.068132245852807249 0.060796601463750724 -0.06813225752832501 0.06079660146375087 0.06079660146375078 0.060796601463750849 0.06079660146375078 0.060796601463750849
leaf_weight=0.58024857938289676 0.70169469714164456 0.87037286907434364 1.234065487980845 1.5300927609205235 1.3751972168684004 0.98893927037715945 10.937155365943921 1.1321886926889422 0.98912522196769703 1.0587234795093525 8.0267720147967321 1.1884529292583454 1.9487670361995686 0.97496969997882743 1.1713867485523213 1.3673210442066182 0.97662274539471639 0.97654394805431444 1.1718431115150458 1.3671440184116335 0.67695667594671327 1.9530633985996253 5.512361504137516 0.58024857938289631 0.87037286907434408 1.1604971587657935 0.87037286907434408
leaf_count=6 6 9 6 7 9 5 56 5 5 5 83 6 10 5 6 7 5 5 6 7 7 10 57 6 9 12 9
internal_value=-0.012472 -0.0286648 -0.0443504 -0.0575557 -0.0201058 -0.0374069 -0.066113 -0.0192682 -0.0308371 -0.0683767 0.0611902 -0.0681532 -0.0681221 -0.0681291 -0.0681319 -0.0681328 -0.0681325 -0.0681323 -0.0681323 -0.0681323 0.0607966 -0.0681323 0.0607966 0.0607966 0.0607966 0.0607966 0.0607966
internal_weight=52.1915 42.7861 36.4033 32.3416 6.01554 4.64035 26.3261 3.11025 2.12131 25.092 9.40542 24.0333 22.8448 20.8961 19.9211 18.7497 17.3824 16.4057 15.4292 14.2574 8.70373 12.8902 6.38273 4.06174 3.48149 2.61112 2.03087
internal_count=369 273 207 165 31 22 134 15 10 128 96 123 117 107 102 96 89 84 79 73 90 66 66 42 36 27 21
is_linear=0
shrinkage=0.05


Tree=17
num_leaves=24
num_cat=0
split_feature=48 117 49 61 117 116 26 124 48 114 32 108 68 32 31 12 48 119 107 115 27 1 37
split_gain=23.3232 22.4234 18.8211 3.99409 2.22109 1.18119 1.08569 0.364516 0.00939278 0.00603027 0.000161511 0.000118226 3.49327e-06 3.6944e-07 3.96236e-09 9.79057e-11 1.59383e-10 1.82041e-11 1.62359e-12 9.23706e-14 2.13163e-14 3.55271e-15 8.88178e-16
threshold=187.50000000000003 2.3796944126174449 36.231240369011509 1.6718683324388535 2.3594562258652889 0.81494954160621635 35.571618630325666 0.015967118235684859 169.50000000000003 0.17912041466907211 0.015601303854811082 1.5486341042053435 0.0044670015499436383 -0.0069252127195036659 -0.047245696950469089 49.754840713716113 127.50000000000001 1.2121292582580183 1.9786326822160836 1.7433335850831797 43.762235264338862 48.268990264151576 1.0000000180025095e-35
decision_type=10 10 8 10 10 10 8 10 10 8 10 10 10 10 10 10 8 10 10 10 10 10 2
left_child=1 2 22 6 5 -5 -4 -7 10 -2 11 12 13 14 15 17 -17 18 19 20 21 -8 -1
right_child=9 -3 3 4 -6 7 8 -9 -10 -11 -12 -13 -14 -15 -16 16 -18 -19 -20 -21 -22 -23 -24
leaf_value=0.060159755900961322 0.065064106976756839 0.060159755900961343 -0.019084507777091791 -0.072549764118924789 0.036866727671684162 -0.038561599213680187 -0.066938017736248148 -0.0038113342357621004 -0.071412540384109824 0.060159755900961336 -0.067513298667686461 -0.066353214534278393 -0.066865166503635248 -0.066908805549788702 -0.066941393831286264 -0.066937947829855834 -0.066938866110035564 -0.066938237777021514 -0.066937947829855682 -0.066938002054297771 -0.066938010425136502 -0.066938015781353027 0.060159755900961287
leaf_weight=2.5093971714377403 0.67754784226417264 6.1340819746255866 1.2338253259658873 1.4892501831054676 1.3567734807729719 1.2987618744373324 9.6395553052425509 1.8012481331825254 1.2345340847969044 8.3646572381258011 1.1510339379310597 0.92745330929756065 1.8860806822776783 1.1330941021442438 0.94514752924442191 0.94505262374877808 0.94507788121700298 0.9450605511665352 0.94505262374878007 1.1340649724006642 0.94505427777767259 1.5120870172977454 1.3941095396876337
leaf_count=27 6 66 6 7 9 6 51 9 6 90 6 5 10 6 5 5 5 5 5 6 5 8 15
internal_value=-0.0122389 -0.0280913 -0.0433956 -0.0562412 -0.019336 -0.0359518 -0.0648392 -0.0183701 -0.0671635 0.0605272 -0.066936 -0.0669057 -0.0669301 -0.0669365 -0.0669382 -0.0669381 -0.0669384 -0.066938 -0.066938 -0.066938 -0.066938 -0.066938 0.0601598
internal_weight=50.548 41.5058 35.3717 31.4682 5.94603 4.58926 25.5222 3.10001 24.2883 9.04221 23.0538 21.9028 20.9753 19.0892 17.9562 17.011 1.89013 15.1209 14.1758 13.2308 12.0967 11.1516 3.90351
internal_count=369 273 207 165 31 22 134 15 128 96 122 116 111 101 95 90 10 80 75 70 64 59 42
is_linear=0
shrinkage=0.05


Tree=18
num_leaves=28
num_cat=0
split_feature=48 117 49 61 117 116 26 118 108 114 69 23 106 69 108 24 12 27 62 26 1 4 1 9 32 1 37
split_gain=21.8608 20.9527 17.535 3.85837 2.02938 1.12818 1.07603 0.347977 0.00779575 0.0050408 0.000124586 3.66967e-06 3.10291e-06 2.72546e-07 2.73018e-08 3.33884e-09 4.17444e-11 1.4424e-11 4.61853e-14 3.19744e-14 3.55271e-15 3.55271e-15 1.77636e-15 1.77636e-15 3.55271e-15 8.88178e-16 8.88178e-16
threshold=187.50000000000003 2.3796944126174449 36.231240369011509 1.6718683324388535 2.3594562258652889 0.81494954160621635 35.571618630325666 0.60347997028631506 1.5626268232082052 0.17912041466907211 0.0045567695255157529 55.793334905449193 2.5801827932346515 -1.0000000180025095e-35 1.5202195616209921 -1.0000000180025095e-35 49.754840713716113 43.877103955002305 14.855510489419077 51.106874268899709 49.505014885288467 49.191963318923932 48.197373366375579 0.21933534079227934 -0.033330900414330858 48.96281069243085 1.0000000180025095e-35
decision_type=10 10 8 10 10 10 8 10 10 8 10 10 10 10 10 10 10 10 8 10 10 10 8 10 10 8 2
left_child=1 2 26 6 5 -5 -4 -7 10 -2 11 12 13 14 15 16 17 18 19 -8 21 23 -11 24 -20 -24 -1
right_child=9 -3 3 4 -6 7 8 -9 -10 22 -12 -13 -14 -15 -16 -17 -18 -19 20 -21 -22 -23 25 -25 -26 -27 -28
leaf_value=0.059566570250641306 0.064132611169301135 0.059566570250641326 -0.018137083319157452 -0.070980261189342031 0.035514912998564845 -0.037286003943853167 -0.065841317255806484 -0.0032828563858041402 -0.070368563655199959 0.059566570250641326 -0.066373251600160485 -0.065754145254088889 -0.065746177182486223 -0.065816445161030329 -0.065848685155771136 -0.065844220952129426 -0.065841662167318765 -0.065841534191598383 -0.065841329883619501 -0.065841328370335003 -0.065841329962245176 -0.065841332408923689 0.059566570250641132 -0.065841328290739409 -0.06584133268077795 0.059566570250641306 0.059566570250641264
leaf_weight=2.410179041326046 0.65362584590911588 5.8915487676858893 1.2333736419677794 1.4471386522054661 1.3384687304496763 1.2926029413938525 1.2789758741855757 1.8003863990306852 1.0003793090581883 4.0169650688767424 1.1133449971675862 1.4574958682060231 0.9106844961643209 1.0953700542449976 1.4620388597249974 1.0963690578937537 1.0962772667407996 0.9135605990886696 6.9430141746997949 1.2789762467145918 0.91355450451374132 0.91355450451374132 0.53559534251689989 0.91355445981025774 1.0962654054164716 3.4813697263598442 1.338988356292248
leaf_count=27 6 66 6 7 9 6 7 9 5 45 6 8 5 6 8 6 6 5 38 7 5 5 6 5 6 39 15
internal_value=-0.0120186 -0.0275491 -0.0424931 -0.0549996 -0.018591 -0.0345419 -0.0636589 -0.0174932 -0.0660498 0.0599101 -0.0658576 -0.0658307 -0.0658363 -0.0658407 -0.0658421 -0.0658416 -0.0658414 -0.0658413 -0.0658413 -0.0658413 -0.0658413 -0.0658413 0.0595666 -0.0658413 -0.0658413 0.0595666 0.0595666
internal_weight=48.9237 40.2361 34.3446 30.5954 5.8786 4.54013 24.7168 3.09299 23.4834 8.68756 22.483 21.3697 19.9122 19.0015 17.9061 16.4441 15.3477 14.2515 13.3379 2.55795 10.7799 9.86639 8.03393 8.95283 8.03928 4.01697 3.74917
internal_count=369 273 207 165 31 22 134 15 128 96 123 117 109 104 98 90 84 78 73 14 59 54 90 49 44 45 42
is_linear=0
shrinkage=0.05


Tree=19
num_leaves=28
num_cat=0
split_feature=48 117 49 61 117 116 26 25 48 25 114 31 108 69 118 24 106 22 103 32 106 119 1 1 4 25 23
split_gain=20.5044 19.5934 16.3505 3.7327 1.85485 1.07977 1.06793 0.347437 0.00643905 0.00539267 0.00422139 0.000112113 8.88105e-05 3.42786e-06 5.49333e-08 3.23264e-09 2.97149e-10 3.83515e-11 1.34719e-11 4.9738e-14 2.84217e-14 2.13163e-14 1.77636e-15 1.77636e-15 1.77636e-15 1.77636e-15 8.88178e-16
threshold=187.50000000000003 2.3796944126174449 36.231240369011509 1.6718683324388535 2.3594562258652889 0.81494954160621635 35.571618630325666 58.49021321465387 169.50000000000003 57.682788906476006 0.17912041466907211 0.060119416780030438 1.5486341042053435 0.0039665400920187027 1.7767871666912367 -1.0000000180025095e-35 2.5605421587489228 1.5146815504462248 0.15523097348763451 -0.032092146099169751 2.5301197337651078 1.1635242038881499 50.596739184591961 46.335747657653407 36.417793467810561 57.758291952779125 60.665851700721227
decision_type=10 10 8 10 10 10 8 10 10 10 8 10 10 10 10 10 10 8 8 10 10 10 10 8 8 10 10
left_child=1 2 -1 6 5 -5 -4 9 11 -7 -2 12 13 14 15 16 17 -8 -19 20 21 23 24 -20 -12 -23 -3
right_child=10 26 3 4 -6 7 8 -9 -10 -11 22 -13 -14 -15 -16 -17 -18 18 19 -21 -22 25 -24 -25 -26 -27 -28
leaf_value=0.059013361952632418 0.063270096758638886 0.059013361952632432 -0.01723926502729357 -0.069550231513966956 0.034214199941880692 -0.025574152276586104 -0.064832238449916799 0.0079516760943562012 -0.06864995299869843 -0.030633660739094522 0.059013361952632321 -0.065326676341287027 -0.06430679803062414 -0.064758303120009519 -0.064820405764506442 -0.064834826258262618 -0.064832863284333866 -0.064831709398043835 -0.064831914255896766 -0.064831902424378016 -0.0648319037457777 -0.064831907245386511 0.059013361952632362 -0.064831913910967126 0.059013361952632418 -0.064831909967613885 0.059013361952632362
leaf_weight=3.5989007949829102 0.63000796735286435 4.8842225074768058 1.2327428162097991 1.4041389226913441 1.3203534334897993 1.0558390468359 0.88219504058362375 0.97896540164947499 1.1622583866119374 1.0507970750331876 0.9425692558288582 1.0758008062839497 0.86368170380592246 1.7596001625061024 1.0581748783588398 1.0587343275547052 0.88221529126167375 0.88217808306217094 2.4701168388128361 1.4114949554204805 0.88218435645103532 0.88218455016613084 0.77119302749633778 6.3517289608716974 5.9981679916381836 1.0586214065551756 0.77119302749633778
leaf_count=42 6 57 6 7 9 5 5 5 6 5 11 6 5 10 6 6 5 5 14 8 5 5 9 36 70 6 9
internal_value=-0.0118108 -0.027037 -0.0416411 -0.053828 -0.0178811 -0.0332014 -0.0625616 -0.0166605 -0.065025 -0.0280979 0.0593348 -0.0648292 -0.064803 -0.0648249 -0.0648315 -0.0648322 -0.064832 -0.0648319 -0.0648319 -0.0648319 -0.0648319 -0.0648319 0.0590134 -0.0648319 0.0590134 -0.0648319 0.0590134
internal_weight=47.3203 38.9783 33.3229 29.724 5.81009 4.48974 23.9139 3.0856 22.6812 2.10664 8.34194 21.5189 20.4431 19.5794 17.8198 16.7617 15.7029 14.8207 13.9385 13.0563 11.6448 10.7627 7.71193 8.82185 6.94074 1.94081 5.65542
internal_count=369 273 207 165 31 22 134 15 128 10 96 122 116 111 101 95 89 84 79 74 66 61 90 50 81 11 66
is_linear=0
shrinkage=0.05


Tree=20
num_leaves=31
num_cat=0
split_feature=48 117 49 61 117 26 116 124 23 108 114 24 96 68 32 108 23 106 119 9 115 25 1 107 107 107 23 35 35 2
split_gain=19.2441 18.3343 15.2568 3.61739 1.69533 1.06112 1.05858 0.688021 0.155533 0.00539442 0.00354116 8.83122e-05 3.77042e-06 2.35157e-06 5.3298e-07 4.49379e-08 2.30328e-09 2.42043e-10 1.92166e-11 7.10543e-15 1.42109e-14 3.55271e-15 1.77636e-15 1.77636e-15 1.77636e-15 1.77636e-15 8.88178e-16 8.88178e-16 8.88178e-16 4.44089e-16
threshold=187.50000000000003 2.3796944126174449 36.231240369011509 1.6718683324388535 2.3594562258652889 35.571618630325666 0.92404194801011874 0.015967118235684859 47.932105173673541 1.5626268232082052 0.17912041466907211 4.6229111807236238 1.9810376001548946 0.0044670015499436383 -1.0000000180025095e-35 1.5202195616209921 52.973746979900248 2.5605421587489228 1.2121292582580183 0.027378931899912019 1.7433335850831797 58.49021321465387 49.06684790499262 1.9715147471508361 1.9662958643487798 1.8590677210762705 48.456143297516583 56.000000000000007 22.333333333333336 1.3818284191483239
decision_type=10 10 8 10 10 8 10 10 10 10 8 10 10 10 10 10 10 10 10 10 10 10 10 10 10 10 10 8 10 8
left_child=1 2 -1 5 6 -4 8 -8 -5 11 -2 12 13 14 15 16 17 18 19 20 21 23 27 24 25 -7 -3 28 -12 -24
right_child=10 26 3 4 -6 9 7 -9 -10 -11 22 -13 -14 -15 -16 -17 -18 -19 -20 -21 -22 -23 29 -25 -26 -27 -28 -29 -30 -31
leaf_value=0.058496846821740403 0.0624701242291291 0.058496846821740417 -0.016387952426896089 -0.044806051295265305 0.032961030994260947 -0.063900834722771402 -0.034911030316632702 0.018358069314491611 -0.072636433230960196 -0.067785312113440313 0.058496846821740368 -0.064363130865875376 -0.063786967110992465 -0.063831360691876629 -0.063864546648279272 -0.063911137057509657 -0.063903356994799307 -0.063901718270936991 -0.06390107915501772 -0.063900829438376577 -0.063900828969840034 -0.063900831896489263 0.058496846821740306 -0.063900837266326602 -0.063900833132552945 -0.063900835774571632 0.058496846821740389 0.058496846821740334 0.058496846821740389 0.058496846821740382
leaf_weight=3.4528405219316483 0.60676087439059934 2.7129461243748656 1.2319615334272445 0.99987305700778906 1.302487254142761 6.9788158535957372 1.2821735292673113 1.1497043371200559 1.0082617253065107 0.94005687534809013 2.3841041699051866 1.0385435819625843 0.84709563851356406 1.3578636348247517 1.019777894020083 1.1920031160116185 1.0213947296142567 0.85110545158386308 0.85108342766761858 0.85107491910457689 1.021289765834809 1.1915050297975547 0.41105244308710076 0.85107508301735002 0.85107506811618883 1.0212901234626768 2.7129461243748665 0.65768390893936146 2.3841041699051857 1.5619992837309835
leaf_count=42 6 33 6 5 9 41 6 6 5 5 29 6 5 8 6 7 6 5 5 5 6 7 5 5 5 6 33 8 29 19
internal_value=-0.0116135 -0.0265504 -0.0408315 -0.0527155 -0.0171983 -0.0615383 -0.0319126 -0.00972732 -0.0587794 -0.0640799 0.058798 -0.0639136 -0.0638902 -0.0638948 -0.0638996 -0.0639018 -0.0639011 -0.0639009 -0.0639008 -0.0639008 -0.0639008 -0.0639008 0.0584968 -0.0639008 -0.0639008 -0.0639008 0.0584968 0.0584968 0.0584968 0.0584968
internal_weight=45.7439 37.7382 32.3124 28.8595 5.7425 23.117 4.44001 2.43188 2.00813 21.8851 8.0057 20.945 19.9064 19.0594 17.7015 16.6817 15.4897 14.4683 13.6172 12.7661 11.9151 10.8938 7.39894 9.70226 8.85118 8.00011 5.42589 5.42589 4.76821 1.97305
internal_count=369 273 207 165 31 134 22 12 10 128 96 123 117 112 104 98 91 85 80 75 70 64 90 57 52 47 66 66 58 24
is_linear=0
shrinkage=0.05


Tree=21
num_leaves=27
num_cat=0
split_feature=48 117 49 61 117 26 116 23 115 108 114 32 9 68 32 108 63 42 21 10 23 68 125 10 1 23
split_gain=18.0719 17.1669 14.2459 3.50926 1.54994 1.05537 1.00821 0.361482 0.678441 0.00447785 0.00297521 7.37475e-05 3.12268e-06 1.99572e-06 2.23941e-07 3.4022e-08 1.9227e-09 6.09219e-11 1.73443e-11 3.90799e-14 3.19744e-14 1.24345e-14 7.10543e-15 3.55271e-15 1.77636e-15 8.88178e-16
threshold=187.50000000000003 2.3796944126174449 36.231240369011509 1.6718683324388535 2.3594562258652889 35.571618630325666 0.81494954160621635 47.112175580212757 1.9334661514731468 1.5626268232082052 0.17912041466907211 0.015601303854811082 0.26735160456996948 0.0044670015499436383 -0.0069252127195036659 1.5202195616209921 12.306272790614381 324.00000000000006 0.29578599007512402 0.15507549527447295 47.112175580212757 -0.015329698721435787 0.18602656229856288 -0.0045369221241457879 51.017123041038154 19.985094541917046
decision_type=10 10 8 10 10 8 10 10 10 10 8 10 10 10 10 10 10 2 10 10 10 10 8 10 10 10
left_child=1 2 -1 5 6 -4 -5 -8 -9 11 -2 12 13 14 15 16 17 -7 19 20 21 22 -19 -24 -12 -3
right_child=10 25 3 4 -6 9 7 8 -10 -11 24 -13 -14 -15 -16 -17 -18 18 -20 -21 -22 -23 23 -25 -26 -27
leaf_value=0.058014067354472038 0.061727014458921536 0.058014067354472044 -0.01558031028106616 -0.067195246634771055 0.031752314010114933 -0.063040687870542733 0.010079205429204895 -0.053628180017580906 0.0034856809862109893 -0.066639313833070618 0.058014067354472038 -0.06347049850466277 -0.062934709558023716 -0.062981944524630698 -0.063016650341317107 -0.063048950187413313 -0.063042894490647691 -0.063040353143477071 -0.063040584892608872 -0.063040336596325589 -0.063040338597322762 -0.063040343599815502 -0.063040348572694541 -0.063040347298843807 0.058014067354471954 0.058014067354472038
leaf_weight=3.3110823333263397 0.5839402973651876 0.70951764285564323 1.2310550957918263 1.321567803621291 1.2849200963973997 1.6406978517770916 0.98081675171852145 1.1037774980068209 0.9830438196659087 0.9091944545507421 6.5433293730020523 1.0015507340431202 0.81640122830867667 1.6363528370857228 0.9833490848541232 1.313045114278794 0.82043026387691576 0.98440369963646901 0.8203451484441765 0.82033602893352586 0.98440331220626909 0.98440350592134507 6.5626913458109 0.82033632695673997 0.55184705555438984 4.4936117380857468
leaf_count=42 6 9 6 7 9 10 5 5 5 5 83 6 5 10 6 8 5 6 5 5 6 6 40 5 7 57
internal_value=-0.011426 -0.0260877 -0.040062 -0.0516585 -0.0165462 -0.060581 -0.0306853 -0.0149565 -0.0267234 -0.0632068 0.0582964 -0.0630522 -0.0630304 -0.0630346 -0.0630398 -0.0630412 -0.0630405 -0.0630404 -0.0630404 -0.0630403 -0.0630403 -0.0630403 -0.0630403 -0.0630403 0.0580141 0.0580141
internal_weight=44.1965 36.5173 31.3142 28.0031 5.67413 22.329 4.38921 3.06764 2.08682 21.0979 7.67912 20.1887 19.1872 18.3708 16.7344 15.7511 14.438 13.6176 11.9769 11.1566 10.3362 9.35183 8.36743 7.38303 7.09518 5.20313
internal_count=369 273 207 165 31 134 22 15 10 128 96 123 117 112 102 96 88 83 73 68 63 57 51 45 90 66
is_linear=0
shrinkage=0.05


Tree=22
num_leaves=31
num_cat=0
split_feature=48 117 49 61 117 26 116 32 122 48 114 69 108 23 24 23 20 4 107 27 23 9 66 23 1 1 2 2 23 37
split_gain=16.9813 16.0846 13.3119 3.40334 1.41849 1.0505 0.967616 0.352601 0.0345686 0.0037403 0.00250335 6.68314e-05 5.98388e-05 2.36598e-06 1.38029e-07 1.6637e-09 4.64233e-10 1.98114e-10 3.88489e-11 1.30456e-11 4.26326e-14 3.37508e-14 1.24345e-14 5.32907e-15 1.77636e-15 1.77636e-15 1.77636e-15 8.88178e-16 8.88178e-16 8.88178e-16
threshold=187.50000000000003 2.3796944126174449 36.231240369011509 1.6718683324388535 2.3594562258652889 35.571618630325666 0.81494954160621635 0.61093293403570903 1.0306971799320299 169.50000000000003 0.17912041466907211 0.0045567695255157529 1.5486341042053435 55.793334905449193 3.4348090421793995 52.973746979900248 0.2351260586421795 49.207884622186164 1.9780064308637035 43.877103955002305 46.902578412183509 0.027378931899912019 5.084091168424 45.388934094097529 47.628805903977188 49.806545245268794 -0.96575114916474536 -1.6545998905691837 64.944560050694491 1.0000000180025095e-35
decision_type=10 10 8 10 10 8 10 10 10 10 8 10 10 10 10 10 10 10 10 10 10 10 8 10 10 10 10 10 10 2
left_child=1 2 29 5 6 -4 -5 8 -8 11 -2 12 13 14 15 16 17 18 19 20 21 22 -7 25 27 26 -24 -12 -3 -1
right_child=10 28 3 4 -6 9 7 -9 -10 -11 24 -13 -14 -15 -16 -17 -18 -19 -20 -21 -22 -23 23 -25 -26 -27 -28 -29 -30 -31
leaf_value=0.057562364758283968 0.06103572424630227 0.057562364758283996 -0.014813752703460701 -0.066083409717289418 0.030585358321002506 -0.062243650220664005 -0.019245172086489411 0.01072231270643594 -0.032107242713916677 -0.065300989455875508 0.057562364758283982 -0.062645590774680779 -0.061787440775721653 -0.062171619827020824 -0.062224226259650267 -0.062245922997015507 -0.062244938834392693 -0.062244460522394254 -0.062243305082630943 -0.062243863399496252 -0.062243643387975417 -0.062243644891996124 -0.062243654969375443 -0.062243659885060587 0.057562364758283982 -0.062243655612380655 -0.062243656343834088 0.057562364758283892 0.057562364758283885 0.057562364758283927
leaf_weight=2.0402275174856186 0.56159229576587577 4.5338389277458182 1.2300457060337162 1.2777243256568898 1.2676936537027357 1.1060859262943292 1.0234160721302039 0.96552400290966023 1.0670784413814542 1.0525417774915684 3.0225592851638794 0.96511602401733299 0.7705327719449987 1.259570151567458 0.94715946912765581 0.94818025827407915 0.79011182487011034 0.79009291529655534 0.79004783928394395 0.79006974399089891 1.1060855090618122 0.79006114602089006 5.6884432733059018 0.94807389378547657 3.0225592851638794 0.79006148874759663 0.79006156325339372 0.75563982129097018 0.4533838927745818 1.133459731936455
leaf_count=27 6 60 6 7 9 7 5 5 5 6 40 6 5 8 6 6 5 5 5 5 7 5 36 6 40 5 5 10 6 15
internal_value=-0.0112488 -0.0256497 -0.0393336 -0.0506586 -0.0159366 -0.0596828 -0.029545 -0.0142683 -0.0258105 -0.0623986 0.0578273 -0.0622401 -0.0622187 -0.0622376 -0.0622427 -0.0622439 -0.0622438 -0.0622437 -0.0622436 -0.0622437 -0.0622437 -0.0622437 -0.0622437 -0.0622437 0.0575624 -0.0622437 -0.0622437 0.0575624 0.0575624 0.0575624
internal_weight=42.677 35.3147 30.3275 27.1538 5.60144 21.5523 4.33374 3.05602 2.09049 20.3223 7.36235 19.2698 18.3046 17.5341 16.2745 15.3274 14.3792 13.5891 12.799 12.0089 11.2189 10.1128 9.32273 8.21664 6.80076 7.26857 6.4785 3.7782 4.98722 3.17369
internal_count=369 273 207 165 31 134 22 15 10 128 96 122 116 111 103 97 91 86 81 76 71 64 59 52 90 46 41 50 66 42
is_linear=0
shrinkage=0.05


Tree=23
num_leaves=31
num_cat=0
split_feature=48 117 49 61 117 26 116 118 23 108 114 31 96 69 108 118 23 106 10 68 115 31 4 10 70 70 23 37 38 49
split_gain=15.9629 15.0759 12.4433 3.3095 1.29679 1.04635 0.935799 0.681548 0.155093 0.00313811 0.00210917 5.25509e-05 3.36394e-06 2.09505e-06 4.68331e-08 2.46744e-08 2.13642e-09 4.09006e-10 3.90799e-14 4.26326e-14 2.4869e-14 1.06581e-14 3.55271e-15 1.77636e-15 1.77636e-15 1.77636e-15 8.88178e-16 4.44089e-16 4.44089e-16 2.22045e-16
threshold=187.50000000000003 2.3796944126174449 36.231240369011509 1.6718683324388535 2.3594562258652889 35.571618630325666 0.92404194801011874 0.60347997028631506 47.932105173673541 1.5626268232082052 0.17912041466907211 0.060119416780030438 1.9810376001548946 0.0039665400920187027 1.5202195616209921 1.7767871666912367 52.973746979900248 2.5605421587489228 0.18104300830054351 -0.01200562485108273 1.7433335850831797 -0.090496867004266304 49.191963318923932 -0.016486908003850498 0.9835149583920505 3.5315647542422952 19.855009040767449 1.0000000180025095e-35 -0.47222222222222215 0.13811195968806889
decision_type=10 10 8 10 10 8 10 10 10 10 8 10 10 10 10 10 10 10 10 10 10 10 10 10 8 8 10 2 2 8
left_child=1 2 27 5 6 -4 8 -8 -5 11 -2 12 13 14 15 16 17 18 19 20 21 22 23 24 -7 -26 -3 28 29 -1
right_child=10 26 3 4 -6 9 7 -9 -10 -11 -12 -13 -14 -15 -16 -17 -18 -19 -20 -21 -22 -23 -24 -25 25 -27 -28 -29 -30 -31
leaf_value=0.057139350771081177 0.060391794324688865 0.057139350771081288 -0.014085901188020623 -0.040688200977500893 0.029457822138369373 -0.061504795875203883 -0.033068520561700579 0.020154303002796123 -0.069472790484541316 -0.064623011722268517 0.057139350771081288 -0.061880882274038276 -0.061391949874774893 -0.061443654708623355 -0.061515364645592298 -0.061496539793518171 -0.061507373018245361 -0.06150599192769754 -0.061504784573139792 -0.061504785102107953 -0.061504789703919906 -0.061504802913801351 -0.061504794613716697 -0.061504798280599043 -0.061504799647412914 -0.061504797926057633 0.057139350771081281 0.057139350771081232 0.057139350771081204 0.057139350771081232
leaf_weight=0.50678125023841858 0.53975427150726218 0.36198660731315513 1.2289530634880161 0.94547820091247448 1.2508418187499044 0.91239362955093994 1.268137574195862 1.1442536413669584 0.9265667051076889 0.84863486886024375 6.5157589316368103 0.92927476763725181 0.75560632348060508 1.5155797600746144 1.0650701522827137 0.91198277473449785 0.91252157092094499 0.76037748157978136 0.76032756268978197 0.76032759249209902 0.91239321231842119 0.9123937189579 1.0644590705633161 1.0644592493772513 0.91239371895790089 4.5619685649871826 4.4162366092205048 1.0859598219394684 0.65157589316368114 0.79637053608894326
leaf_count=7 6 5 6 5 9 6 6 6 5 5 90 6 5 10 7 6 6 5 5 5 6 6 7 7 6 30 61 15 9 11
internal_value=-0.0110774 -0.0252254 -0.0386277 -0.0496895 -0.0153321 -0.0588375 -0.0284086 -0.00782369 -0.0549351 -0.0616492 0.0573882 -0.0615143 -0.0614952 -0.0614998 -0.0615052 -0.0615045 -0.061505 -0.0615049 -0.0615048 -0.0615048 -0.0615048 -0.0615048 -0.0615048 -0.0615048 -0.0615048 -0.0615048 0.0571394 0.0571394 0.0571394 0.0571394
internal_weight=41.1988 34.1433 29.3651 26.3244 5.53528 20.7891 4.28444 2.41239 1.87204 19.5602 7.05551 18.7115 17.7823 17.0266 15.5111 14.446 13.534 12.6215 11.8611 11.1008 10.3405 9.42807 8.51567 7.45122 6.38676 5.47436 4.77822 3.04069 1.95473 1.30315
internal_count=369 273 207 165 31 134 22 12 10 128 96 123 117 112 102 95 89 83 78 73 68 62 56 49 42 36 66 42 27 18
is_linear=0
shrinkage=0.05


Tree=24
num_leaves=28
num_cat=0
split_feature=48 117 49 26 124 124 117 117 108 114 32 106 68 62 32 108 61 12 9 62 32 18 22 23 24 38 38
split_gain=15.0126 14.1373 11.6374 3.22917 1.19856 1.09435 0.574637 0.481252 0.00262635 0.00177929 5.29232e-05 2.72622e-06 2.07566e-06 2.5802e-07 1.52361e-07 3.30226e-08 1.14805e-09 2.15422e-10 7.10543e-14 4.08562e-14 3.95239e-14 7.10543e-15 1.77636e-15 8.88178e-16 8.88178e-16 4.44089e-16 4.44089e-16
threshold=187.50000000000003 2.3796944126174449 36.231240369011509 38.256224998251582 0.013183494973979491 0.03487222017942785 2.3418153737904386 2.3130187551155852 1.5626268232082052 0.17912041466907211 0.017258871577655037 2.5801827932346515 0.0044670015499436383 14.894926795535195 -0.0069252127195036659 1.5202195616209921 0.12034348698609955 49.754840713716113 0.21933534079227934 14.894926795535195 -0.034484416812067563 7.4120531958476947 1.5611512213487984 19.907642820544467 -12.834144683843057 -0.24999999999999997 -0.54166666666666663
decision_type=10 10 8 8 10 10 10 10 10 8 10 10 10 10 10 10 10 10 10 8 8 8 8 10 10 2 2
left_child=1 2 25 5 8 6 7 -4 10 -2 11 12 14 -14 15 16 17 18 19 20 -5 -21 -23 -3 -25 26 -1
right_child=9 23 3 4 -6 -7 -8 -9 -10 -11 -12 -13 13 -15 -16 -17 -18 -19 -20 21 -22 22 -24 24 -26 -27 -28
leaf_value=0.056742850081398614 0.059791228150600964 0.056742850081398656 -0.030251402426805237 -0.060818516130999138 -0.0040579203407338608 0.022641161579480696 -0.053101953709311381 0.013914937560269434 -0.063721393105665658 0.056742850081398656 -0.061237588320208314 -0.060713188475688663 -0.060741367656970371 -0.060779778690787038 -0.060797946155461892 -0.060827475446855198 -0.060820449452435289 -0.060819330174890919 -0.060818501597321731 -0.060818515195449313 -0.06081850195486177 -0.060818518086469868 -0.060818519642737656 0.056742850081398614 0.056742850081398649 0.056742850081398621 0.056742850081398545
leaf_weight=1.0400321334600446 0.51845617592334647 0.41601285338401695 1.7042585164308612 1.4623997211456297 0.9732556939125051 1.4268067702651022 1.4806502535939214 0.96659409999847401 0.8183773010969152 6.2401928007602692 0.74775156378745933 0.72656223177909751 0.87339568138122448 0.87541115283966064 0.87635907530784685 1.1705426424741752 0.87754085659980852 0.87748220562934953 0.731199190020562 0.73119978606700797 0.73119923472405135 0.87743981182575304 6.5807996392250061 0.97069665789604176 3.1894318759441376 1.2480385601520536 0.62401928007602725
leaf_count=15 6 6 8 10 6 9 8 5 5 90 5 5 6 6 6 8 6 6 5 5 5 6 45 14 46 18 9
internal_value=-0.0109133 -0.0248187 -0.0379511 -0.0487612 -0.0581726 -0.0151349 -0.0281179 -0.0142674 -0.0609507 0.0569767 -0.0608257 -0.060808 -0.0608121 -0.0607606 -0.0608182 -0.0608194 -0.0608187 -0.0608186 -0.0608185 -0.0608185 -0.0608185 -0.0608185 -0.0608185 0.0567429 0.0567429 0.0567429 0.0567429
internal_weight=39.7561 32.9975 28.4213 25.5092 19.9309 5.57831 4.1515 2.67085 18.9577 6.75865 18.1393 17.3915 16.665 1.74881 14.9162 14.0398 12.8693 11.9917 11.1142 10.383 2.1936 8.18944 7.45824 4.57614 4.16013 2.91209 1.66405
internal_count=369 273 207 165 135 30 21 13 129 96 124 119 114 12 102 96 88 82 76 71 15 56 51 66 60 42 24
is_linear=0
shrinkage=0.05


Tree=25
num_leaves=27
num_cat=0
split_feature=48 117 49 26 124 124 117 117 48 114 32 108 68 62 32 61 9 15 108 112 24 27 1 1 2 40
split_gain=14.113 13.2439 10.8673 3.20268 1.17691 0.988641 0.517154 0.436267 0.00221272 0.00150277 4.69987e-05 3.92424e-05 1.68814e-06 2.14902e-07 1.1888e-07 8.90463e-10 5.47892e-10 3.38407e-10 5.27223e-11 7.4607e-14 3.19744e-14 1.06581e-14 1.06581e-14 1.77636e-15 1.77636e-15 4.44089e-16
threshold=187.50000000000003 2.3796944126174449 36.231240369011509 38.256224998251582 0.013183494973979491 0.03487222017942785 2.3418153737904386 2.3130187551155852 169.50000000000003 0.17912041466907211 0.017258871577655037 1.5486341042053435 0.0044670015499436383 14.894926795535195 -0.0069252127195036659 0.12034348698609955 0.25972637325954634 49.240026490977648 1.5040302776390602 0.0093783057876068339 -4.2136186516141647 43.762235264338862 46.594868958519491 48.268990264151576 -14.667614173724035 0.43055555555555564
decision_type=10 10 8 8 10 10 10 10 10 8 10 10 10 10 10 10 10 10 10 10 10 10 10 8 8 2
left_child=1 2 25 5 8 6 7 -4 10 -2 11 12 14 -14 15 16 17 18 19 20 21 22 24 -24 -5 -1
right_child=9 -3 3 4 -6 -7 -8 -9 -10 -11 -12 -13 13 -15 -16 -17 -18 -19 -20 -21 -22 -23 23 -25 -26 -27
leaf_value=0.056370894402790361 0.059230462657812101 0.0563708944027905 -0.0288651866238572 -0.06018016041778336 -0.0038571510199067053 0.021494831190757735 -0.050436198207845812 0.013193914860212526 -0.062659844157328767 0.056370894402790486 -0.060570614019996832 -0.059786572139402527 -0.060108339871727923 -0.060144098913920509 -0.060161016530525073 -0.060181957473995351 -0.060181635191236676 -0.060181262203492403 -0.060179711661138217 -0.060180143664118738 -0.060180152992938031 -0.060180155546423336 -0.060180157265730005 -0.060180160112124736 -0.060180163311938095 0.056370894402790465
leaf_weight=0.59740291535854373 0.49772129952907462 4.3809547126293173 1.6969857662916283 0.70272922515869141 0.97273305058479209 1.427728936076164 1.4809498935937879 0.96839797496795643 0.94479238986968894 5.974029153585434 0.71891635656356712 0.68304666876792985 0.83932670950889654 0.84129425883293152 0.84221971035003029 0.84337353706359941 0.70279654860496599 0.70277941226959306 0.70270875096321184 0.70272840559482652 1.2649118006229354 0.84327471256256092 0.84327493607997861 0.84327484667301189 5.2001962661743253 2.1904773563146591
leaf_count=9 6 66 8 5 6 9 8 5 6 90 5 5 6 6 6 6 5 5 5 5 9 6 6 6 37 33
internal_value=-0.0107381 -0.0243816 -0.0372198 -0.0477542 -0.0574431 -0.0143901 -0.0267466 -0.0135841 -0.0603037 0.0565908 -0.0601748 -0.0601577 -0.0601736 -0.0601262 -0.0601792 -0.0601804 -0.0601803 -0.0601802 -0.0601801 -0.0601802 -0.0601802 -0.0601802 -0.0601802 -0.0601802 -0.0601802 0.0563709
internal_weight=38.409 31.9373 27.5563 24.7684 19.1944 5.57406 4.14633 2.66538 18.2216 6.47175 17.2769 16.5579 15.8749 1.68062 14.1943 13.352 12.5087 11.8059 11.1031 10.4004 9.69766 8.43275 7.58948 1.68655 5.90293 2.78788
internal_count=369 273 207 165 135 30 21 13 129 96 123 118 113 12 101 95 89 84 79 74 69 60 54 12 42 42
is_linear=0
shrinkage=0.05


Tree=26
num_leaves=24
num_cat=0
split_feature=48 117 49 26 124 124 117 117 108 114 32 96 68 62 32 108 61 106 20 23 118 10 1
split_gain=13.2723 12.4114 10.1519 3.17405 1.15683 0.893492 0.466102 0.395579 0.00255689 0.00127062 3.85779e-05 1.27262e-05 1.44588e-06 1.79319e-07 1.07349e-07 3.53809e-08 7.6486e-10 4.81087e-10 6.92779e-14 4.44089e-14 2.9754e-14 1.06581e-14 8.88178e-16
threshold=187.50000000000003 2.3796944126174449 36.231240369011509 38.256224998251582 0.013183494973979491 0.03487222017942785 2.3418153737904386 2.3130187551155852 1.6105482915694831 0.17912041466907211 0.017258871577655037 1.9773478416568029 0.0044670015499436383 14.894926795535195 -0.0069252127195036659 1.5202195616209921 0.12034348698609955 2.5605421587489228 1.0000000180025095e-35 45.538718082706914 1.7711842144692984 -0.015233692400835818 51.157022524025173
decision_type=10 10 8 8 10 10 10 10 10 8 10 10 10 10 10 10 10 10 10 10 10 10 10
left_child=1 2 -1 5 8 6 7 -4 10 -2 11 12 14 -14 15 16 17 18 19 21 -21 -5 -11
right_child=9 -3 3 4 -6 -7 -8 -9 -10 22 -12 -13 13 -15 -16 -17 -18 -19 -20 20 -22 -23 -24
leaf_value=0.05602169080313605 0.058706299565441711 0.056021690803136064 -0.027548549863656364 -0.059585589883114159 -0.0036662274076909745 0.020409872306113054 -0.047942461191170266 0.012512582846626586 -0.062816463036046905 0.056021690803136064 -0.059949839097891144 -0.059401219786500842 -0.059518646973335865 -0.05955197776089749 -0.059567743893819462 -0.059595834120709124 -0.059587263235941781 -0.059586963895281599 -0.059585574645762834 -0.059585575371396839 -0.05958558709270198 -0.059585583882658111 0.056021690803135904
leaf_weight=2.6680252254009247 0.47756702452897926 4.1926110684871665 1.6893820762634377 6.2096074372530081 0.97223354876041312 1.42842461168766 1.4801002591848371 0.97002910077571858 0.6347506046295156 5.3995748609304428 0.69075562059879203 1.0648669898509968 0.80610147118568309 0.80801859498023987 0.80892047286033353 0.94562375545501787 0.81004479527473527 0.67502312362194139 1.2149219065904606 1.0799309164285662 1.0799316167831419 0.67495715618133445 0.31762205064296711
leaf_count=42 6 66 8 46 6 9 8 5 4 85 5 8 6 6 6 7 6 5 9 8 8 5 5
internal_value=-0.0105685 -0.023958 -0.0365115 -0.0467795 -0.0567524 -0.013687 -0.0254528 -0.0129361 -0.0597011 0.0562287 -0.0595839 -0.0595683 -0.0595801 -0.0595353 -0.0595854 -0.0595865 -0.0595858 -0.0595857 -0.0595856 -0.0595856 -0.0595856 -0.0595856 0.0560217
internal_weight=37.099 30.9043 26.7116 24.0436 18.4757 5.56794 4.13951 2.65941 17.5035 6.19476 16.8687 16.1779 15.1131 1.61412 13.499 12.69 11.7444 10.9344 10.2593 9.04443 2.15986 6.88456 5.7172
internal_count=369 273 207 165 135 30 21 13 129 96 125 120 112 12 100 94 87 81 76 67 16 51 90
is_linear=0
shrinkage=0.05


Tree=27
num_leaves=26
num_cat=0
split_feature=48 117 49 26 123 124 123 118 68 108 114 96 69 68 108 23 20 27 10 62 24 10 7 24 40
split_gain=12.4857 11.6349 9.48646 3.14338 1.16094 0.807765 0.456375 0.179925 0.0026259 0.00215594 0.00107541 1.06627e-05 1.09021e-06 1.80931e-07 2.92697e-08 1.46098e-09 4.0019e-10 6.7395e-12 8.88178e-14 1.24345e-14 9.76996e-15 8.88178e-15 3.55271e-15 1.77636e-15 4.44089e-16
threshold=187.50000000000003 2.3796944126174449 36.231240369011509 38.256224998251582 0.021427122534280058 0.03487222017942785 -0.0007614324825555226 0.60377841600949911 0.017163272668166633 1.6105482915694831 0.17912041466907211 1.9773478416568029 0.0039665400920187027 0.002630171988852487 1.5202195616209921 52.973746979900248 0.2351260586421795 43.877103955002305 0.18104300830054351 14.855510489419077 -4.2136186516141647 -0.0045369221241457879 8.4462270197078571 -18.273265767689654 0.43055555555555564
decision_type=10 10 8 8 10 10 8 10 10 10 8 10 10 10 10 10 10 10 10 8 10 10 8 10 2
left_child=1 2 24 5 8 6 7 -4 9 11 -2 12 13 14 15 16 17 18 19 20 -5 22 -21 -24 -1
right_child=10 -3 3 4 -6 -7 -8 -9 -10 -11 -12 -13 -14 -15 -16 -17 -18 -19 -20 21 -22 -23 23 -25 -26
leaf_value=0.055693624359326135 0.058215852471906339 0.055693624359326281 -0.02634399936068418 -0.059031105819280276 -0.0043492548690924745 0.019382429481139718 -0.043468840920247685 0.0016689014602784655 -0.062463663214603199 -0.062042917103721111 0.055693624359326267 -0.058859188530024954 -0.058982424229328645 -0.059007141222317844 -0.059040669694071249 -0.059033437581258924 -0.059032397941343788 -0.059031272127945567 -0.059031087820979378 -0.059031111229476546 -0.059031098215748867 -0.059031102910180558 -0.05903110798403987 -0.059031108514214593 0.055693624359326246
leaf_weight=0.54695894569158587 0.45800577849149604 4.0110322684049597 0.97501952946186099 1.166249945759773 1.0215701162815083 1.4289228469133375 1.7653390467166996 1.3909479379653928 0.61311769485473533 0.61112980544567186 5.4695894569158554 1.0220239013433463 1.2909715175628651 0.77606320381164628 0.90774841606617052 0.77763929963111955 0.64798091351986009 0.64792482554912645 0.64791569113731462 0.64791673421860263 0.64791618287562691 0.90708296000957034 4.1466674506664321 1.2958335280418349 2.0055161342024803
leaf_count=9 6 66 5 9 7 9 9 7 4 4 90 8 10 6 7 6 5 5 5 5 5 7 32 10 33
internal_value=-0.0104038 -0.0235462 -0.0358233 -0.0458334 -0.0560967 -0.0130221 -0.0242301 -0.00987527 -0.0592519 -0.0591299 0.0558885 -0.0590153 -0.0590263 -0.0590306 -0.059032 -0.0590313 -0.0590312 -0.0590311 -0.0590311 -0.0590311 -0.0590311 -0.0590311 -0.0590311 -0.0590311 0.0556936
internal_weight=35.8271 29.8995 25.8885 23.336 17.7758 5.56023 4.13131 2.36597 16.7542 16.1411 5.9276 15.5299 14.5079 13.2169 12.4409 11.5331 10.7555 10.1075 9.45958 8.81167 1.81417 6.9975 6.09042 5.4425 2.55248
internal_count=369 273 207 165 135 30 21 12 128 124 96 120 112 102 96 89 83 78 73 68 14 54 47 42 42
is_linear=0
shrinkage=0.05


Tree=28
num_leaves=31
num_cat=0
split_feature=48 117 49 125 123 62 125 117 116 70 117 108 114 63 96 68 62 24 108 23 106 27 10 21 32 4 115 23 1 38
split_gain=11.7493 10.9101 8.86731 3.12425 1.27724 0.943694 0.670211 0.617654 0.629982 0.18827 0.302196 0.00176702 0.000911073 0.000111923 8.60698e-06 1.1988e-06 2.2747e-07 2.07883e-07 2.41296e-08 7.5288e-10 3.30736e-10 5.45164e-12 8.52651e-14 2.30926e-14 3.28626e-14 2.39808e-14 7.99361e-15 1.33227e-15 4.44089e-16 4.44089e-16
threshold=187.50000000000003 2.3796944126174449 36.231240369011509 0.52641436319346224 0.027045928543748831 14.894926795535195 0.77435857014583032 2.349941124166179 0.92404194801011874 5.8229539724740293 2.3594562258652889 1.6105482915694831 0.17912041466907211 11.336152109002574 1.9773478416568029 0.0044670015499436383 14.894926795535195 3.6476711437555385 1.5202195616209921 52.973746979900248 2.5605421587489228 43.877103955002305 0.18104300830054351 -0.015167873257411155 -0.031151525470217132 49.217804604336159 1.7507376581830263 45.388934094097529 45.547024399759898 0.3000000000000001
decision_type=10 10 8 10 8 10 8 10 10 10 8 10 8 8 10 10 10 10 10 10 10 10 10 8 8 8 10 10 10 2
left_child=1 2 29 11 5 6 -5 8 -8 -7 -11 13 -2 -4 15 17 -17 18 19 20 21 22 23 28 26 -26 27 -25 -15 -1
right_child=12 -3 3 4 -6 9 7 -9 -10 10 -12 -13 -14 14 -16 16 -18 -19 -20 -21 -22 -23 -24 24 25 -27 -28 -29 -30 -31
leaf_value=0.055385194491038361 0.057756527212013721 0.055385194491038396 -0.059166260026645705 -0.064754319958450809 0.080409839874606218 -0.064267635055907782 -0.038802969589974728 0.025549068122284857 0.0043995126303615628 -0.061133257051448175 -0.016017703735599825 -0.061324451042716971 0.055385194491038396 -0.058513426270259898 -0.058352928353820138 -0.058445072827969173 -0.058484199884982081 -0.058487023285239539 -0.058522354101480524 -0.058515175090499305 -0.058514629802552169 -0.0585135745093249 -0.058513402520914207 -0.058513426270259884 -0.058513418889957924 -0.058513406625206356 -0.058513419003332845 -0.058513423640332941 -0.058513425515768581 0.055385194491038306
leaf_weight=1.9180605970323088 0.43904547393321891 3.8361211940646163 0.65227389335632935 0.52665418386459251 0.30591019988059986 1.0860672891139986 1.6090217381715777 1.2043733000755308 1.7743453830480573 0.69118998944759336 0.80167660117149364 0.58796203881502229 5.2310743555426598 1.4919162690639498 0.98039956390857774 0.74169974029064067 0.74413923919200897 0.7443125396966942 0.87093038856983263 0.74606698751449663 0.621694155037403 0.6216396391391753 0.62163066864013661 0.99461084604263328 1.1189368590712472 0.6216309815645219 0.74595789611339558 0.99461089074611664 0.74595815688371647 0.52310743555426586
leaf_count=33 6 66 5 3 2 8 8 8 9 5 5 4 90 12 8 6 6 6 7 6 5 5 5 8 9 5 6 8 6 9
internal_value=-0.0102435 -0.0231456 -0.035154 -0.044914 -0.0197841 -0.0237681 -0.0113329 -0.00520037 -0.0161462 -0.0484288 -0.036906 -0.058639 0.0555688 -0.0585267 -0.0584956 -0.0585068 -0.0584647 -0.0585125 -0.0585144 -0.0585137 -0.0585135 -0.0585134 -0.0585134 -0.0585134 -0.0585134 -0.0585134 -0.0585134 -0.0585134 -0.0585134 0.0553852
internal_weight=34.593 28.9229 25.0868 22.6456 7.99924 7.69333 5.11439 4.58774 3.38337 2.57893 1.49287 14.6464 5.67012 14.0584 13.4061 12.4257 1.48584 10.9399 10.1956 9.32465 8.57859 7.95689 7.33525 6.71362 4.47575 1.74057 2.73518 1.98922 2.23787 2.44117
internal_count=369 273 207 165 48 46 28 25 17 18 10 117 96 113 108 100 12 88 82 75 69 64 59 54 36 14 22 16 18 42
is_linear=0
shrinkage=0.05


Tree=29
num_leaves=30
num_cat=0
split_feature=48 117 49 125 123 62 117 116 31 70 24 108 114 122 96 68 62 24 108 119 23 9 70 20 118 23 114 15 57
split_gain=11.064 10.2402 8.29849 3.0928 1.17463 0.881843 0.425046 0.778148 0.637053 0.175649 0.284543 0.00148308 0.000772532 9.45994e-05 7.19659e-06 9.99965e-07 1.90772e-07 1.726e-07 2.09282e-08 1.20881e-09 6.24283e-10 2.76634e-10 4.79616e-12 9.76996e-14 8.88178e-15 7.99361e-15 8.88178e-15 8.88178e-16 4.44089e-16
threshold=187.50000000000003 2.3796944126174449 36.231240369011509 0.52641436319346224 0.027045928543748831 14.894926795535195 2.349941124166179 0.92404194801011874 0.34768415659612845 5.8229539724740293 -13.131734483314416 1.6105482915694831 0.17912041466907211 1.7189813637409288 1.9773478416568029 0.0044670015499436383 14.894926795535195 3.6476711437555385 1.5202195616209921 1.1251233581481876 52.973746979900248 0.25972637325954634 0.98700790761518176 0.014426004076149915 1.7720472431612366 45.538718082706914 0.16123214927707413 49.150976069377762 0.029549843839591923
decision_type=10 10 8 10 8 10 10 10 8 10 10 10 8 8 10 10 10 10 10 8 10 10 10 10 10 10 8 8 8
left_child=1 2 28 11 5 6 7 8 -5 -7 -11 13 -2 -4 15 17 -17 18 19 -15 21 22 23 24 25 26 -21 -28 -1
right_child=12 -3 3 4 -6 9 -8 -9 -10 10 -12 -13 -14 14 -16 16 -18 -19 -20 20 -22 -23 -24 -25 -26 -27 27 -29 -30
leaf_value=0.055095043846383189 0.057325964837325431 0.05509504384638321 -0.058642206396900265 -0.013040543819402324 0.078106707046933871 -0.062497186616521185 0.012843264359454744 0.0041770027335922147 -0.070608430456939777 -0.058134430537861048 -0.014042100139720508 -0.060656178934363404 0.055095043846383196 -0.058027465446302932 -0.057879578040567592 -0.057965647205692722 -0.058002238871562209 -0.058004878494129886 -0.058037917104442553 -0.058029560284038176 -0.058031208473474177 -0.05803069792449022 -0.058029711864385936 -0.058029544506392854 -0.058029570021447464 -0.058029560119210011 -0.058029565928662555 -0.058029567893390838 0.055095043846383022
leaf_weight=1.9450253248214719 0.42069016396999259 3.6677620410919181 0.62599822878838196 0.96419513225555387 0.29934972524642933 1.0616226047277453 1.3781545981764791 1.7753942459821699 0.95809768140315976 0.7218296229839325 0.74204775691032387 0.56529194861650545 5.0014936923980713 0.59600692242383324 0.94001818448305208 0.7112138271331776 0.71357960999011993 0.71374769508838731 0.83519408851862031 0.59611935913562764 0.71544924378395069 0.59618043154478062 0.59612740576267231 0.59611844271421421 0.95379154384136189 0.83456701785325993 2.3844788223505025 1.0730154812335966 0.38900506496429477
leaf_count=35 6 66 5 5 2 8 9 9 5 6 4 4 90 5 8 6 6 6 7 5 6 5 5 5 8 7 20 9 7
internal_value=-0.0100955 -0.0227761 -0.0345386 -0.0440707 -0.0190436 -0.0228695 -0.0108568 -0.01969 -0.0417332 -0.0470131 -0.0357838 -0.0581472 0.0552681 -0.058042 -0.0580128 -0.0580233 -0.057984 -0.0580286 -0.0580303 -0.0580296 -0.0580298 -0.0580297 -0.0580296 -0.0580296 -0.0580296 -0.0580296 -0.0580296 -0.0580296 0.055095
internal_weight=33.3716 27.9494 24.2816 21.9476 7.90069 7.60134 5.07584 3.69769 1.92229 2.5255 1.46388 14.0469 5.42218 13.4816 12.8556 11.9156 1.42479 10.4908 9.77705 8.94185 8.34585 7.6304 7.03422 6.43809 5.84197 4.88818 4.05361 3.45749 2.33403
internal_count=369 273 207 165 48 46 28 19 10 18 10 117 96 113 108 100 12 88 82 75 70 64 59 54 49 41 34 29 42
is_linear=0
shrinkage=0.05


Tree=30
num_leaves=31
num_cat=0
split_feature=48 117 49 125 62 117 117 116 31 24 108 114 122 96 24 68 62 24 108 119 23 106 119 10 24 113 26 1 1 23
split_gain=10.4208 9.6128 7.76691 3.06303 1.0817 0.819676 1.14504 0.719703 0.610643 0.175407 0.00124663 0.000655609 7.95533e-05 6.03541e-06 4.2152e-06 8.39834e-07 1.6025e-07 1.44976e-07 1.757e-08 1.01484e-09 5.24295e-10 2.32586e-10 3.89022e-12 1.01252e-13 1.5099e-14 1.59872e-14 1.77636e-15 8.88178e-16 8.88178e-16 8.88178e-16
threshold=187.50000000000003 2.3796944126174449 36.231240369011509 0.52641436319346224 14.894926795535195 2.349941124166179 2.3594562258652889 0.92404194801011874 0.34768415659612845 -13.131734483314416 1.6105482915694831 0.17912041466907211 1.7189813637409288 1.9773478416568029 -18.506032238940076 0.0044670015499436383 14.894926795535195 3.6476711437555385 1.5202195616209921 1.1251233581481876 52.973746979900248 2.5605421587489228 1.2121292582580183 0.18104300830054351 -3.9282711770694472 -0.00058949074738160986 51.097842582011744 51.157022524025173 29.134928010331816 20.061667692154973
decision_type=10 10 8 10 10 10 10 10 8 10 10 8 8 10 10 10 10 10 10 8 10 10 10 10 10 10 8 10 10 10
left_child=1 2 -1 10 5 7 -7 8 -5 14 12 -2 -4 15 -6 17 -17 18 19 -14 21 22 23 24 25 26 -21 28 -13 -3
right_child=11 29 3 4 9 6 -8 -9 -10 -11 -12 27 13 -15 -16 16 -18 -19 -20 20 -22 -23 -24 -25 -26 -27 -28 -29 -30 -31
leaf_value=0.05482192774577397 0.056922045436391122 0.054821927745773963 -0.058150571776278075 -0.012428999557120762 -0.057499818037490241 -0.014615511186611347 0.068500183902867648 0.0039659019070948228 -0.06928716918203974 -0.030784093073077574 -0.060033762036904838 0.054821927745773949 -0.057574909539459096 -0.057436565744420132 -0.057675073845169636 -0.057517040353764697 -0.057551296101371156 -0.057553764735445927 -0.057584690997924015 -0.057576875483271117 -0.057578412795731032 -0.057577935437482478 -0.057577009653599499 -0.057576853239495587 -0.05757686947762674 -0.057576870926444736 -0.057576878491898242 0.054821927745773817 0.054821927745773984 0.054821927745773984
leaf_weight=2.2309792265295982 0.40294051170349021 0.63742263615131323 0.60037452727556839 0.96113464236259416 0.68051737546920776 0.90642622113227822 0.7633383646607399 1.7763754427433012 0.92830534279346444 1.0991739779710767 0.54315560311079103 1.0623710602521894 0.57128257304429375 0.90089482069015581 0.69195550680160545 0.68167024850845226 0.68396154046058655 0.6841243654489525 0.80055540800094682 0.57139173150062506 0.68577246367931355 0.57145063579082478 0.57139926403760899 0.57139060646295536 0.91422647237777876 1.028504781424999 3.085515983402729 0.2655927650630473 3.4527059458196163 2.868401862680912
leaf_count=42 6 12 5 5 6 5 6 9 5 6 4 20 5 8 6 6 6 6 7 5 6 5 5 5 8 9 27 5 65 54
internal_value=-0.00995012 -0.0224123 -0.0339325 -0.0432405 -0.0183234 -0.00565632 0.0233811 -0.0188827 -0.0403641 -0.045668 -0.0576872 0.0549852 -0.0575885 -0.0575612 -0.0575882 -0.057571 -0.0575342 -0.057576 -0.0575776 -0.0575769 -0.0575771 -0.057577 -0.0575769 -0.0575769 -0.0575769 -0.0575769 -0.0575769 0.0548219 0.0548219 0.0548219
internal_weight=32.1933 27.0097 23.5039 21.2729 7.80723 5.33558 1.66976 3.66582 1.88944 2.47165 13.4657 5.18361 12.9225 12.3221 1.37247 11.4212 1.36563 10.0556 9.37149 8.57093 7.99965 7.31388 6.74243 6.17103 5.59964 4.68541 3.65691 4.78067 4.51508 3.50582
internal_count=369 273 207 165 48 30 11 19 10 18 117 96 113 108 12 100 12 88 82 75 70 64 59 54 49 41 32 90 85 66
is_linear=0
shrinkage=0.05


Tree=31
num_leaves=31
num_cat=0
split_feature=48 117 49 125 62 117 117 116 24 24 108 114 63 96 24 68 62 24 108 119 23 9 70 10 10 23 4 32 25 23
split_gain=9.82054 9.0311 7.27681 3.01962 1.00685 0.750197 1.07263 0.665932 0.591056 0.187781 0.00104934 0.000556816 6.73521e-05 5.06249e-06 3.5465e-06 7.0316e-07 1.34772e-07 1.20882e-07 1.52143e-08 2.6141e-09 4.39712e-10 1.97311e-10 3.3431e-12 9.41469e-14 1.42109e-14 5.32907e-15 2.66454e-15 6.21725e-15 6.66134e-16 4.44089e-16
threshold=187.50000000000003 2.3796944126174449 36.231240369011509 0.52641436319346224 14.894926795535195 2.349941124166179 2.3594562258652889 0.92404194801011874 2.762888587293745 -15.778288595985765 1.6105482915694831 0.17912041466907211 11.336152109002574 1.9773478416568029 -18.506032238940076 0.0044670015499436383 14.894926795535195 3.6476711437555385 1.5202195616209921 1.1251233581481876 52.973746979900248 0.25972637325954634 0.98700790761518176 0.18104300830054351 -0.015749477421765506 45.476166445325575 49.191963318923932 -0.031151525470217132 57.948126327493704 45.538718082706914
decision_type=10 10 8 10 10 8 10 10 8 8 10 8 8 10 10 10 10 10 10 8 10 10 10 10 8 8 8 8 10 10
left_child=1 2 -1 10 5 7 -7 8 -5 14 12 -2 -4 15 -6 17 -17 18 19 -14 21 22 23 24 -21 -26 -27 28 -28 -3
right_child=11 29 3 4 9 6 -8 -9 -10 -11 -12 -13 13 -15 -16 16 -18 -19 -20 20 -22 -23 -24 -25 25 26 27 -29 -30 -31
leaf_value=0.054564693098657149 0.056542811880877598 0.054564693098657149 -0.057692036773044297 -0.011658524858529831 -0.057080747926749192 -0.013932326401491607 0.067296464035552492 0.0037656083343360798 -0.068106249773839056 -0.029178636124771742 -0.059453338510070723 0.054564693098657163 -0.05714956861903308 -0.057021569118041453 -0.057244978562008365 -0.057096883677912415 -0.057128978597432836 -0.057131293845306443 -0.057160270640173295 -0.057152946864889122 -0.057154382336574799 -0.057153940932098829 -0.05715307055507312 -0.057152921593780194 -0.057152945352721397 -0.057152943087672985 -0.057152940821022027 -0.057152935964138896 -0.057152942759976726 0.054564693098657149
leaf_weight=2.1319244205951691 0.38579442352056403 1.2690026313066476 0.57561939954758656 0.95555810630321458 0.65196016430854797 0.9034088999032972 0.73876557499170303 1.7772939205169676 0.90101069211959817 1.1016039997339251 0.52158147096633989 4.5684094727039337 0.54726013541220986 0.86303634941577989 0.66302825510501839 0.65307535231113323 0.65529187023639679 0.65544939041137773 0.76702279597520906 1.9708346575498579 0.65704381465911854 0.54751112312078465 0.54746129363775242 0.54745269566774357 0.65694488584995392 0.65694467723369632 0.6569445729255674 0.76643505692482028 0.65694491565227509 2.0811643153429031
leaf_count=42 6 25 5 5 6 5 6 9 5 6 4 90 5 8 6 6 6 6 7 18 6 5 5 5 6 6 6 7 6 41
internal_value=-0.00981415 -0.0220741 -0.0333711 -0.0424737 -0.0176786 -0.00543638 0.0226101 -0.0181108 -0.0390531 -0.0444066 -0.0572565 0.0547187 -0.0571639 -0.0571382 -0.0571636 -0.0571474 -0.057113 -0.057152 -0.0571535 -0.0571529 -0.0571531 -0.057153 -0.057153 -0.0571529 -0.0571529 -0.0571529 -0.0571529 -0.0571529 -0.0571529 0.0545647
internal_weight=31.0318 26.0776 22.7274 20.5955 7.69263 5.27604 1.64217 3.63386 1.85657 2.41659 12.9029 4.9542 12.3813 11.8057 1.31499 10.9426 1.30837 9.63425 8.9788 8.21178 7.66452 7.00747 6.45996 5.9125 5.36505 3.39421 2.73727 2.08032 1.31389 3.35017
internal_count=369 273 207 165 48 30 11 19 10 18 117 96 113 108 12 100 12 88 82 75 70 64 59 54 49 31 25 19 12 66
is_linear=0
shrinkage=0.05


Tree=32
num_leaves=31
num_cat=0
split_feature=48 117 49 125 24 117 31 31 124 118 108 114 122 96 24 68 62 24 108 119 23 20 70 10 24 10 114 27 23 23
split_gain=9.25701 8.48637 6.81901 2.97623 0.9526 0.626697 1.78332 0.487511 0.604007 0.409856 0.000884415 0.00047326 5.67896e-05 4.25746e-06 2.98785e-06 5.92125e-07 1.13506e-07 1.01788e-07 1.28164e-08 2.21888e-09 3.70211e-10 1.67182e-10 2.85816e-12 9.50351e-14 7.99361e-15 3.55271e-15 3.33067e-15 2.66454e-15 4.44089e-16 4.44089e-16
threshold=187.50000000000003 2.3796944126174449 36.231240369011509 0.52641436319346224 -15.778288595985765 2.3594562258652889 -0.11982588119847741 0.34768415659612845 0.03487222017942785 0.60377841600949911 1.6105482915694831 0.17912041466907211 1.7189813637409288 1.9773478416568029 -18.506032238940076 0.0044670015499436383 14.894926795535195 3.6476711437555385 1.5202195616209921 1.1251233581481876 52.973746979900248 0.2351260586421795 0.98700790761518176 0.18104300830054351 -3.9282711770694472 -0.015749477421765506 0.16375198798175364 43.762235264338862 52.257446965323844 20.061667692154973
decision_type=10 10 8 10 10 10 8 8 10 10 10 8 8 10 10 10 10 10 10 8 10 10 10 10 10 10 10 10 10 8
left_child=1 2 -1 10 14 7 -7 9 -9 -6 12 -2 -4 15 -5 17 -17 18 19 -14 21 22 23 24 25 27 -27 -21 29 -3
right_child=11 28 3 4 5 6 -8 8 -10 -11 -12 -13 13 -15 -16 16 -18 -19 -20 20 -22 -23 -24 -25 -26 26 -28 -29 -30 -31
leaf_value=0.054322294522373686 0.056186512452642307 0.054322294522373686 -0.05726131198819643 -0.056687892411357632 -0.022463297222695338 -0.037211797104672505 0.067291608746469139 -0.067812767858893244 -0.0094724629958393668 0.015354176341529725 -0.058911434427170506 0.054322294522373693 -0.05675241621271529 -0.056632475649590036 -0.056841925142071752 -0.056703024480376223 -0.056733122184537535 -0.056735293082932417 -0.056762465097890152 -0.056755595982329092 -0.056756943254839966 -0.056756532103785277 -0.056755713963753278 -0.056755571728204834 -0.056755588885611809 -0.056755589877602534 -0.056755595235824866 -0.056755591606200223 0.054322294522373672 0.054322294522373651
leaf_weight=2.0367694348096848 0.36924721300601859 0.58193412423133772 0.55156122148037923 0.62435254454612732 1.6308360844850538 0.77987819910049438 0.85665734112262704 0.90145972371101313 0.87359309196472168 1.2778151184320448 0.50059156864881593 4.3645059317350388 0.5241196230053865 0.82644288986921388 0.63505068421363808 0.62543010711669811 0.62757194042205811 0.62772420048713762 0.73459831625223149 2.9361238479614298 0.62926498055458058 0.52436306327581395 0.52431479096412648 0.52430636435747136 0.62916901707648865 0.5243074372410772 0.52430768311023712 0.52430757880210865 1.5033298209309576 1.1153737381100655
leaf_count=42 6 12 5 6 8 4 7 5 5 7 4 90 5 8 6 6 6 6 7 28 6 5 5 5 6 5 5 5 31 23
internal_value=-0.00968114 -0.021743 -0.0328219 -0.0417241 -0.0170569 -0.00914436 0.0174913 -0.0184511 -0.0391006 -0.0058495 -0.0568528 0.0544677 -0.0567659 -0.0567417 -0.0567656 -0.0567504 -0.0567181 -0.0567547 -0.0567561 -0.0567556 -0.0567558 -0.0567557 -0.0567556 -0.0567556 -0.0567556 -0.0567556 -0.0567556 -0.0567556 0.0543223 0.0543223
internal_weight=29.9093 25.1756 21.9749 19.9381 7.57964 6.32024 1.63654 4.6837 1.77505 2.90865 12.3585 4.73375 11.8579 11.3064 1.2594 10.4799 1.253 9.22691 8.59918 7.86458 7.34046 6.7112 6.18684 5.66252 5.13822 4.50905 1.04862 3.46043 3.20064 1.69731
internal_count=369 273 207 165 48 36 11 25 10 15 117 96 113 108 12 100 12 88 82 75 70 64 59 54 49 43 10 33 66 35
is_linear=0
shrinkage=0.05


Tree=33
num_leaves=31
num_cat=0
split_feature=48 117 63 124 26 26 125 117 118 61 70 48 108 114 116 96 26 69 125 23 108 23 106 70 10 69 114 1 2 113
split_gain=8.7282 7.97688 6.47581 3.908 0.633533 0.4112 0.309836 0.549411 0.268202 0.162171 0.0358434 0.000853746 0.000757489 0.000402516 1.10226e-05 3.42694e-06 7.9851e-07 3.85987e-07 3.62294e-08 1.14166e-08 9.96181e-09 3.07566e-10 1.4039e-10 2.53841e-12 8.9706e-14 7.99361e-15 6.21725e-15 8.88178e-16 8.88178e-16 8.88178e-16
threshold=187.50000000000003 2.3796944126174449 9.2367241256212456 0.036263502354648668 35.571618630325666 40.750523827639626 0.85894469394931738 2.3418153737904386 0.60347997028631506 1.5202365277097754 6.0459509322881475 169.50000000000003 1.6105482915694831 0.17912041466907211 0.29346154499298055 1.9773478416568029 43.600721337878419 0.00050152916745235159 0.19438649778530295 44.33035004183499 1.5202195616209921 52.973746979900248 2.5605421587489228 0.9835149583920505 0.18104300830054351 -0.0080648950716381198 0.16123214927707413 51.551688313612296 -1.5707081242724354 1.0000000180025095e-35
decision_type=10 10 8 8 10 8 10 8 8 10 8 8 10 8 10 10 8 10 10 8 10 10 10 10 10 8 8 8 10 8
left_child=1 2 3 4 6 -6 7 8 -1 12 11 -5 14 -2 15 16 -4 18 20 -20 21 22 23 24 25 -18 -27 29 -28 -15
right_child=13 -3 9 10 5 -7 -8 -9 -10 -11 -12 -13 -14 27 -16 -17 17 -19 19 -21 -22 -23 -24 -25 -26 26 28 -29 -30 -31
leaf_value=-0.020095281567239578 0.055851520687251965 0.054093761991043904 -0.05631931316078418 0.054093761991043848 -0.062155728797679492 -0.013911602706618049 0.0096033055712817766 -0.047251875999945167 0.016902121494932237 -0.028407497311732133 0.074202781351290881 0.057266275082053245 -0.058404952819104385 0.054093761991043848 -0.056604570339489152 -0.05626737820410968 -0.056382849769690713 -0.05634946153394791 -0.056378294820765007 -0.056368676236061614 -0.056389302063429882 -0.056384120584365573 -0.056383736233211239 -0.056382970101800836 -0.056382832122144816 -0.056382850108082042 -0.056382856310752676 0.054093761991043834 -0.056382855171036028 0.054093761991043876
leaf_weight=1.0375341475010007 0.35329212993383308 3.0570778772234908 0.59769076108931507 1.8064551092684276 1.1560749411582942 0.71474225819110881 1.4834988564252851 1.0627066045999525 0.92795719206333172 0.53830487281084138 0.25917030870914448 0.2402665652334689 0.48020196706056673 1.0653453208506107 0.51376691460609514 0.79110845178365785 0.70273019373416901 0.99982856214046556 0.80267639458179441 0.50108438730239879 0.7032785266637801 0.6024329513311385 0.50200390070676792 0.50195740908384312 0.50194911658763874 0.50195021182298516 2.509752705693244 0.69479042664170254 0.80312071740627411 2.4086068123579025
leaf_count=5 6 66 6 39 9 5 8 6 5 5 2 4 4 23 5 8 7 10 8 5 7 6 5 5 5 5 25 15 8 52
internal_value=-0.00955196 -0.0214218 -0.0322896 0.00089486 -0.019261 -0.0437241 -0.00911708 -0.0182881 -0.00262789 -0.0552563 0.0566845 0.0544662 -0.0564592 0.0542311 -0.0563782 -0.0563676 -0.0563754 -0.0563789 -0.0563823 -0.0563746 -0.0563836 -0.056383 -0.0563829 -0.0563829 -0.0563829 -0.0563829 -0.0563829 0.0540938 -0.0563829 0.0540938
internal_weight=28.8214 24.2993 21.2422 8.68841 6.38251 1.87082 4.5117 3.0282 1.96549 12.5538 2.30589 2.04672 12.0155 4.52203 11.5353 11.0216 10.2305 9.63277 8.63294 1.30376 7.32918 6.6259 6.02346 5.52146 5.0195 4.51755 3.81482 4.16874 3.31287 3.47395
internal_count=369 273 207 83 38 14 24 16 10 124 45 43 119 96 115 110 102 96 86 13 73 66 60 55 50 45 38 90 33 75
is_linear=0
shrinkage=0.05


Tree=34
num_leaves=31
num_cat=0
split_feature=48 117 63 124 26 26 125 117 124 38 27 42 108 114 96 31 115 24 66 108 49 23 20 70 125 10 21 125 8 25
split_gain=8.22624 7.49144 6.19884 3.66135 0.599598 0.404125 0.280234 0.498569 0.25619 0.199858 0.0303536 0.000686821 0.000645085 0.000342573 3.03756e-06 7.33328e-07 3.32686e-07 3.25948e-07 4.95982e-08 8.48188e-09 4.17306e-09 2.60773e-10 1.17538e-10 3.31291e-12 3.18856e-13 8.34888e-14 1.24345e-14 6.21725e-15 3.10862e-15 1.77636e-15
threshold=187.50000000000003 2.3796944126174449 9.2367241256212456 0.036263502354648668 35.571618630325666 40.750523827639626 0.85894469394931738 2.3418153737904386 0.015967118235684859 1.0000000180025095e-35 19.074958241985076 972.00000000000011 1.6105482915694831 0.17912041466907211 1.9773478416568029 -0.45556946497044176 2.0674957203902538 3.6476711437555385 5.7165613576569054 1.5202195616209921 29.277921940373762 52.973746979900248 0.2351260586421795 0.98700790761518176 0.19252790122187355 0.18104300830054351 -0.015167873257411155 0.18473610923843589 49.22578268236137 58.036449875879619
decision_type=10 10 8 8 10 8 8 10 10 2 10 2 10 8 10 8 10 10 10 10 10 10 10 10 10 10 8 8 8 8
